digraph Tree {
node [shape=box, style="filled, rounded", color="black", fontname=helvetica] ;
edge [fontname=helvetica] ;
0 [label="Age <= 0.534\ngini = 0.33\nsamples = 6700\nvalue = [5306, 1394]\nclass = E", fillcolor="#eca26d"] ;
1 [label="NumOfProducts <= 1.682\ngini = 0.232\nsamples = 5122\nvalue = [4436, 686]\nclass = E", fillcolor="#e99458"] ;
0 -> 1 [labeldistance=2.5, labelangle=45, headlabel="True"] ;
2 [label="NumOfProducts <= -0.042\ngini = 0.207\nsamples = 4997\nvalue = [4410, 587]\nclass = E", fillcolor="#e89253"] ;
1 -> 2 ;
3 [label="Age <= -0.037\ngini = 0.305\nsamples = 2487\nvalue = [2020, 467]\nclass = E", fillcolor="#eb9e67"] ;
2 -> 3 ;
4 [label="Geography <= -0.3\ngini = 0.236\nsamples = 1796\nvalue = [1551, 245]\nclass = E", fillcolor="#e99558"] ;
3 -> 4 ;
5 [label="Balance <= -0.293\ngini = 0.17\nsamples = 939\nvalue = [851, 88]\nclass = E", fillcolor="#e88e4d"] ;
4 -> 5 ;
6 [label="EstimatedSalary <= 1.67\ngini = 0.303\nsamples = 204\nvalue = [166, 38]\nclass = E", fillcolor="#eb9e66"] ;
5 -> 6 ;
7 [label="Balance <= -0.321\ngini = 0.29\nsamples = 199\nvalue = [164, 35]\nclass = E", fillcolor="#eb9c63"] ;
6 -> 7 ;
8 [label="Age <= -0.608\ngini = 0.284\nsamples = 198\nvalue = [164, 34]\nclass = E", fillcolor="#ea9b62"] ;
7 -> 8 ;
9 [label="Age <= -1.085\ngini = 0.187\nsamples = 86\nvalue = [77, 9]\nclass = E", fillcolor="#e89050"] ;
8 -> 9 ;
10 [label="Tenure <= 1.22\ngini = 0.328\nsamples = 29\nvalue = [23, 6]\nclass = E", fillcolor="#eca26d"] ;
9 -> 10 ;
11 [label="EstimatedSalary <= -0.546\ngini = 0.26\nsamples = 26\nvalue = [22, 4]\nclass = E", fillcolor="#ea985d"] ;
10 -> 11 ;
12 [label="gini = 0.0\nsamples = 14\nvalue = [14, 0]\nclass = E", fillcolor="#e58139"] ;
11 -> 12 ;
13 [label="EstimatedSalary <= -0.255\ngini = 0.444\nsamples = 12\nvalue = [8, 4]\nclass = E", fillcolor="#f2c09c"] ;
11 -> 13 ;
14 [label="gini = 0.0\nsamples = 2\nvalue = [0, 2]\nclass = x", fillcolor="#399de5"] ;
13 -> 14 ;
15 [label="Gender <= -0.096\ngini = 0.32\nsamples = 10\nvalue = [8, 2]\nclass = E", fillcolor="#eca06a"] ;
13 -> 15 ;
16 [label="IsActiveMember <= -0.035\ngini = 0.5\nsamples = 4\nvalue = [2, 2]\nclass = E", fillcolor="#ffffff"] ;
15 -> 16 ;
17 [label="gini = 0.0\nsamples = 2\nvalue = [0, 2]\nclass = x", fillcolor="#399de5"] ;
16 -> 17 ;
18 [label="gini = 0.0\nsamples = 2\nvalue = [2, 0]\nclass = E", fillcolor="#e58139"] ;
16 -> 18 ;
19 [label="gini = 0.0\nsamples = 6\nvalue = [6, 0]\nclass = E", fillcolor="#e58139"] ;
15 -> 19 ;
20 [label="HasCrCard <= -0.45\ngini = 0.444\nsamples = 3\nvalue = [1, 2]\nclass = x", fillcolor="#9ccef2"] ;
10 -> 20 ;
21 [label="gini = 0.0\nsamples = 1\nvalue = [1, 0]\nclass = E", fillcolor="#e58139"] ;
20 -> 21 ;
22 [label="gini = 0.0\nsamples = 2\nvalue = [0, 2]\nclass = x", fillcolor="#399de5"] ;
20 -> 22 ;
23 [label="EstimatedSalary <= 0.582\ngini = 0.1\nsamples = 57\nvalue = [54, 3]\nclass = E", fillcolor="#e68844"] ;
9 -> 23 ;
24 [label="gini = 0.0\nsamples = 36\nvalue = [36, 0]\nclass = E", fillcolor="#e58139"] ;
23 -> 24 ;
25 [label="EstimatedSalary <= 0.622\ngini = 0.245\nsamples = 21\nvalue = [18, 3]\nclass = E", fillcolor="#e9965a"] ;
23 -> 25 ;
26 [label="gini = 0.0\nsamples = 1\nvalue = [0, 1]\nclass = x", fillcolor="#399de5"] ;
25 -> 26 ;
27 [label="Age <= -0.799\ngini = 0.18\nsamples = 20\nvalue = [18, 2]\nclass = E", fillcolor="#e88f4f"] ;
25 -> 27 ;
28 [label="gini = 0.0\nsamples = 12\nvalue = [12, 0]\nclass = E", fillcolor="#e58139"] ;
27 -> 28 ;
29 [label="EstimatedSalary <= 1.387\ngini = 0.375\nsamples = 8\nvalue = [6, 2]\nclass = E", fillcolor="#eeab7b"] ;
27 -> 29 ;
30 [label="EstimatedSalary <= 0.814\ngini = 0.245\nsamples = 7\nvalue = [6, 1]\nclass = E", fillcolor="#e9965a"] ;
29 -> 30 ;
31 [label="Tenure <= 0.701\ngini = 0.5\nsamples = 2\nvalue = [1, 1]\nclass = E", fillcolor="#ffffff"] ;
30 -> 31 ;
32 [label="gini = 0.0\nsamples = 1\nvalue = [0, 1]\nclass = x", fillcolor="#399de5"] ;
31 -> 32 ;
33 [label="gini = 0.0\nsamples = 1\nvalue = [1, 0]\nclass = E", fillcolor="#e58139"] ;
31 -> 33 ;
34 [label="gini = 0.0\nsamples = 5\nvalue = [5, 0]\nclass = E", fillcolor="#e58139"] ;
30 -> 34 ;
35 [label="gini = 0.0\nsamples = 1\nvalue = [0, 1]\nclass = x", fillcolor="#399de5"] ;
29 -> 35 ;
36 [label="CreditScore <= -0.466\ngini = 0.347\nsamples = 112\nvalue = [87, 25]\nclass = E", fillcolor="#eca572"] ;
8 -> 36 ;
37 [label="Tenure <= 0.874\ngini = 0.194\nsamples = 46\nvalue = [41, 5]\nclass = E", fillcolor="#e89051"] ;
36 -> 37 ;
38 [label="Tenure <= -0.855\ngini = 0.062\nsamples = 31\nvalue = [30, 1]\nclass = E", fillcolor="#e68540"] ;
37 -> 38 ;
39 [label="Tenure <= -1.201\ngini = 0.245\nsamples = 7\nvalue = [6, 1]\nclass = E", fillcolor="#e9965a"] ;
38 -> 39 ;
40 [label="gini = 0.0\nsamples = 5\nvalue = [5, 0]\nclass = E", fillcolor="#e58139"] ;
39 -> 40 ;
41 [label="EstimatedSalary <= -0.246\ngini = 0.5\nsamples = 2\nvalue = [1, 1]\nclass = E", fillcolor="#ffffff"] ;
39 -> 41 ;
42 [label="gini = 0.0\nsamples = 1\nvalue = [0, 1]\nclass = x", fillcolor="#399de5"] ;
41 -> 42 ;
43 [label="gini = 0.0\nsamples = 1\nvalue = [1, 0]\nclass = E", fillcolor="#e58139"] ;
41 -> 43 ;
44 [label="gini = 0.0\nsamples = 24\nvalue = [24, 0]\nclass = E", fillcolor="#e58139"] ;
38 -> 44 ;
45 [label="IsActiveMember <= -0.035\ngini = 0.391\nsamples = 15\nvalue = [11, 4]\nclass = E", fillcolor="#eeaf81"] ;
37 -> 45 ;
46 [label="EstimatedSalary <= -0.882\ngini = 0.5\nsamples = 8\nvalue = [4, 4]\nclass = E", fillcolor="#ffffff"] ;
45 -> 46 ;
47 [label="gini = 0.0\nsamples = 2\nvalue = [2, 0]\nclass = E", fillcolor="#e58139"] ;
46 -> 47 ;
48 [label="CreditScore <= -1.309\ngini = 0.444\nsamples = 6\nvalue = [2, 4]\nclass = x", fillcolor="#9ccef2"] ;
46 -> 48 ;
49 [label="Age <= -0.323\ngini = 0.444\nsamples = 3\nvalue = [2, 1]\nclass = E", fillcolor="#f2c09c"] ;
48 -> 49 ;
50 [label="gini = 0.0\nsamples = 1\nvalue = [0, 1]\nclass = x", fillcolor="#399de5"] ;
49 -> 50 ;
51 [label="gini = 0.0\nsamples = 2\nvalue = [2, 0]\nclass = E", fillcolor="#e58139"] ;
49 -> 51 ;
52 [label="gini = 0.0\nsamples = 3\nvalue = [0, 3]\nclass = x", fillcolor="#399de5"] ;
48 -> 52 ;
53 [label="gini = 0.0\nsamples = 7\nvalue = [7, 0]\nclass = E", fillcolor="#e58139"] ;
45 -> 53 ;
54 [label="CreditScore <= -0.326\ngini = 0.422\nsamples = 66\nvalue = [46, 20]\nclass = E", fillcolor="#f0b88f"] ;
36 -> 54 ;
55 [label="Tenure <= -0.509\ngini = 0.408\nsamples = 7\nvalue = [2, 5]\nclass = x", fillcolor="#88c4ef"] ;
54 -> 55 ;
56 [label="Age <= -0.275\ngini = 0.444\nsamples = 3\nvalue = [2, 1]\nclass = E", fillcolor="#f2c09c"] ;
55 -> 56 ;
57 [label="gini = 0.0\nsamples = 2\nvalue = [2, 0]\nclass = E", fillcolor="#e58139"] ;
56 -> 57 ;
58 [label="gini = 0.0\nsamples = 1\nvalue = [0, 1]\nclass = x", fillcolor="#399de5"] ;
56 -> 58 ;
59 [label="gini = 0.0\nsamples = 4\nvalue = [0, 4]\nclass = x", fillcolor="#399de5"] ;
55 -> 59 ;
60 [label="EstimatedSalary <= -0.741\ngini = 0.379\nsamples = 59\nvalue = [44, 15]\nclass = E", fillcolor="#eeac7c"] ;
54 -> 60 ;
61 [label="EstimatedSalary <= -0.927\ngini = 0.492\nsamples = 16\nvalue = [9, 7]\nclass = E", fillcolor="#f9e3d3"] ;
60 -> 61 ;
62 [label="Gender <= -0.096\ngini = 0.459\nsamples = 14\nvalue = [9, 5]\nclass = E", fillcolor="#f3c7a7"] ;
61 -> 62 ;
63 [label="EstimatedSalary <= -1.314\ngini = 0.48\nsamples = 5\nvalue = [2, 3]\nclass = x", fillcolor="#bddef6"] ;
62 -> 63 ;
64 [label="Balance <= -0.88\ngini = 0.444\nsamples = 3\nvalue = [2, 1]\nclass = E", fillcolor="#f2c09c"] ;
63 -> 64 ;
65 [label="gini = 0.0\nsamples = 2\nvalue = [2, 0]\nclass = E", fillcolor="#e58139"] ;
64 -> 65 ;
66 [label="gini = 0.0\nsamples = 1\nvalue = [0, 1]\nclass = x", fillcolor="#399de5"] ;
64 -> 66 ;
67 [label="gini = 0.0\nsamples = 2\nvalue = [0, 2]\nclass = x", fillcolor="#399de5"] ;
63 -> 67 ;
68 [label="EstimatedSalary <= -1.641\ngini = 0.346\nsamples = 9\nvalue = [7, 2]\nclass = E", fillcolor="#eca572"] ;
62 -> 68 ;
69 [label="gini = 0.0\nsamples = 1\nvalue = [0, 1]\nclass = x", fillcolor="#399de5"] ;
68 -> 69 ;
70 [label="Age <= -0.227\ngini = 0.219\nsamples = 8\nvalue = [7, 1]\nclass = E", fillcolor="#e99355"] ;
68 -> 70 ;
71 [label="gini = 0.0\nsamples = 7\nvalue = [7, 0]\nclass = E", fillcolor="#e58139"] ;
70 -> 71 ;
72 [label="gini = 0.0\nsamples = 1\nvalue = [0, 1]\nclass = x", fillcolor="#399de5"] ;
70 -> 72 ;
73 [label="gini = 0.0\nsamples = 2\nvalue = [0, 2]\nclass = x", fillcolor="#399de5"] ;
61 -> 73 ;
74 [label="EstimatedSalary <= 0.155\ngini = 0.303\nsamples = 43\nvalue = [35, 8]\nclass = E", fillcolor="#eb9e66"] ;
60 -> 74 ;
75 [label="gini = 0.0\nsamples = 15\nvalue = [15, 0]\nclass = E", fillcolor="#e58139"] ;
74 -> 75 ;
76 [label="EstimatedSalary <= 0.816\ngini = 0.408\nsamples = 28\nvalue = [20, 8]\nclass = E", fillcolor="#efb388"] ;
74 -> 76 ;
77 [label="Tenure <= 1.566\ngini = 0.496\nsamples = 11\nvalue = [5, 6]\nclass = x", fillcolor="#deeffb"] ;
76 -> 77 ;
78 [label="Tenure <= -0.855\ngini = 0.444\nsamples = 9\nvalue = [3, 6]\nclass = x", fillcolor="#9ccef2"] ;
77 -> 78 ;
79 [label="gini = 0.0\nsamples = 1\nvalue = [1, 0]\nclass = E", fillcolor="#e58139"] ;
78 -> 79 ;
80 [label="Gender <= -0.096\ngini = 0.375\nsamples = 8\nvalue = [2, 6]\nclass = x", fillcolor="#7bbeee"] ;
78 -> 80 ;
81 [label="EstimatedSalary <= 0.497\ngini = 0.5\nsamples = 4\nvalue = [2, 2]\nclass = E", fillcolor="#ffffff"] ;
80 -> 81 ;
82 [label="gini = 0.0\nsamples = 2\nvalue = [2, 0]\nclass = E", fillcolor="#e58139"] ;
81 -> 82 ;
83 [label="gini = 0.0\nsamples = 2\nvalue = [0, 2]\nclass = x", fillcolor="#399de5"] ;
81 -> 83 ;
84 [label="gini = 0.0\nsamples = 4\nvalue = [0, 4]\nclass = x", fillcolor="#399de5"] ;
80 -> 84 ;
85 [label="gini = 0.0\nsamples = 2\nvalue = [2, 0]\nclass = E", fillcolor="#e58139"] ;
77 -> 85 ;
86 [label="Tenure <= 1.22\ngini = 0.208\nsamples = 17\nvalue = [15, 2]\nclass = E", fillcolor="#e89253"] ;
76 -> 86 ;
87 [label="gini = 0.0\nsamples = 15\nvalue = [15, 0]\nclass = E", fillcolor="#e58139"] ;
86 -> 87 ;
88 [label="gini = 0.0\nsamples = 2\nvalue = [0, 2]\nclass = x", fillcolor="#399de5"] ;
86 -> 88 ;
89 [label="gini = 0.0\nsamples = 1\nvalue = [0, 1]\nclass = x", fillcolor="#399de5"] ;
7 -> 89 ;
90 [label="CreditScore <= -0.68\ngini = 0.48\nsamples = 5\nvalue = [2, 3]\nclass = x", fillcolor="#bddef6"] ;
6 -> 90 ;
91 [label="CreditScore <= -1.522\ngini = 0.444\nsamples = 3\nvalue = [2, 1]\nclass = E", fillcolor="#f2c09c"] ;
90 -> 91 ;
92 [label="gini = 0.0\nsamples = 1\nvalue = [0, 1]\nclass = x", fillcolor="#399de5"] ;
91 -> 92 ;
93 [label="gini = 0.0\nsamples = 2\nvalue = [2, 0]\nclass = E", fillcolor="#e58139"] ;
91 -> 93 ;
94 [label="gini = 0.0\nsamples = 2\nvalue = [0, 2]\nclass = x", fillcolor="#399de5"] ;
90 -> 94 ;
95 [label="Balance <= 1.63\ngini = 0.127\nsamples = 735\nvalue = [685, 50]\nclass = E", fillcolor="#e78a47"] ;
5 -> 95 ;
96 [label="Age <= -0.227\ngini = 0.109\nsamples = 710\nvalue = [669, 41]\nclass = E", fillcolor="#e78945"] ;
95 -> 96 ;
97 [label="EstimatedSalary <= 0.838\ngini = 0.09\nsamples = 591\nvalue = [563, 28]\nclass = E", fillcolor="#e68743"] ;
96 -> 97 ;
98 [label="Age <= -1.18\ngini = 0.07\nsamples = 443\nvalue = [427, 16]\nclass = E", fillcolor="#e68640"] ;
97 -> 98 ;
99 [label="CreditScore <= 0.158\ngini = 0.145\nsamples = 76\nvalue = [70, 6]\nclass = E", fillcolor="#e78c4a"] ;
98 -> 99 ;
100 [label="gini = 0.0\nsamples = 40\nvalue = [40, 0]\nclass = E", fillcolor="#e58139"] ;
99 -> 100 ;
101 [label="CreditScore <= 0.537\ngini = 0.278\nsamples = 36\nvalue = [30, 6]\nclass = E", fillcolor="#ea9a61"] ;
99 -> 101 ;
102 [label="EstimatedSalary <= -0.564\ngini = 0.444\nsamples = 15\nvalue = [10, 5]\nclass = E", fillcolor="#f2c09c"] ;
101 -> 102 ;
103 [label="IsActiveMember <= -0.035\ngini = 0.49\nsamples = 7\nvalue = [3, 4]\nclass = x", fillcolor="#cee6f8"] ;
102 -> 103 ;
104 [label="gini = 0.0\nsamples = 4\nvalue = [0, 4]\nclass = x", fillcolor="#399de5"] ;
103 -> 104 ;
105 [label="gini = 0.0\nsamples = 3\nvalue = [3, 0]\nclass = E", fillcolor="#e58139"] ;
103 -> 105 ;
106 [label="Balance <= -0.003\ngini = 0.219\nsamples = 8\nvalue = [7, 1]\nclass = E", fillcolor="#e99355"] ;
102 -> 106 ;
107 [label="gini = 0.0\nsamples = 1\nvalue = [0, 1]\nclass = x", fillcolor="#399de5"] ;
106 -> 107 ;
108 [label="gini = 0.0\nsamples = 7\nvalue = [7, 0]\nclass = E", fillcolor="#e58139"] ;
106 -> 108 ;
109 [label="CreditScore <= 1.686\ngini = 0.091\nsamples = 21\nvalue = [20, 1]\nclass = E", fillcolor="#e68743"] ;
101 -> 109 ;
110 [label="gini = 0.0\nsamples = 18\nvalue = [18, 0]\nclass = E", fillcolor="#e58139"] ;
109 -> 110 ;
111 [label="Age <= -1.37\ngini = 0.444\nsamples = 3\nvalue = [2, 1]\nclass = E", fillcolor="#f2c09c"] ;
109 -> 111 ;
112 [label="gini = 0.0\nsamples = 2\nvalue = [2, 0]\nclass = E", fillcolor="#e58139"] ;
111 -> 112 ;
113 [label="gini = 0.0\nsamples = 1\nvalue = [0, 1]\nclass = x", fillcolor="#399de5"] ;
111 -> 113 ;
114 [label="CreditScore <= -2.135\ngini = 0.053\nsamples = 367\nvalue = [357, 10]\nclass = E", fillcolor="#e6853f"] ;
98 -> 114 ;
115 [label="EstimatedSalary <= 0.425\ngini = 0.245\nsamples = 7\nvalue = [6, 1]\nclass = E", fillcolor="#e9965a"] ;
114 -> 115 ;
116 [label="gini = 0.0\nsamples = 6\nvalue = [6, 0]\nclass = E", fillcolor="#e58139"] ;
115 -> 116 ;
117 [label="gini = 0.0\nsamples = 1\nvalue = [0, 1]\nclass = x", fillcolor="#399de5"] ;
115 -> 117 ;
118 [label="EstimatedSalary <= 0.14\ngini = 0.049\nsamples = 360\nvalue = [351, 9]\nclass = E", fillcolor="#e6843e"] ;
114 -> 118 ;
119 [label="EstimatedSalary <= 0.137\ngini = 0.066\nsamples = 265\nvalue = [256, 9]\nclass = E", fillcolor="#e68540"] ;
118 -> 119 ;
120 [label="Balance <= 0.75\ngini = 0.059\nsamples = 264\nvalue = [256, 8]\nclass = E", fillcolor="#e6853f"] ;
119 -> 120 ;
121 [label="Balance <= 0.153\ngini = 0.027\nsamples = 148\nvalue = [146, 2]\nclass = E", fillcolor="#e5833c"] ;
120 -> 121 ;
122 [label="Balance <= 0.149\ngini = 0.111\nsamples = 34\nvalue = [32, 2]\nclass = E", fillcolor="#e78945"] ;
121 -> 122 ;
123 [label="EstimatedSalary <= -0.233\ngini = 0.059\nsamples = 33\nvalue = [32, 1]\nclass = E", fillcolor="#e6853f"] ;
122 -> 123 ;
124 [label="gini = 0.0\nsamples = 30\nvalue = [30, 0]\nclass = E", fillcolor="#e58139"] ;
123 -> 124 ;
125 [label="EstimatedSalary <= -0.024\ngini = 0.444\nsamples = 3\nvalue = [2, 1]\nclass = E", fillcolor="#f2c09c"] ;
123 -> 125 ;
126 [label="gini = 0.0\nsamples = 1\nvalue = [0, 1]\nclass = x", fillcolor="#399de5"] ;
125 -> 126 ;
127 [label="gini = 0.0\nsamples = 2\nvalue = [2, 0]\nclass = E", fillcolor="#e58139"] ;
125 -> 127 ;
128 [label="gini = 0.0\nsamples = 1\nvalue = [0, 1]\nclass = x", fillcolor="#399de5"] ;
122 -> 128 ;
129 [label="gini = 0.0\nsamples = 114\nvalue = [114, 0]\nclass = E", fillcolor="#e58139"] ;
121 -> 129 ;
130 [label="Balance <= 0.757\ngini = 0.098\nsamples = 116\nvalue = [110, 6]\nclass = E", fillcolor="#e68844"] ;
120 -> 130 ;
131 [label="gini = 0.0\nsamples = 1\nvalue = [0, 1]\nclass = x", fillcolor="#399de5"] ;
130 -> 131 ;
132 [label="CreditScore <= 1.042\ngini = 0.083\nsamples = 115\nvalue = [110, 5]\nclass = E", fillcolor="#e68742"] ;
130 -> 132 ;
133 [label="EstimatedSalary <= -0.716\ngini = 0.056\nsamples = 104\nvalue = [101, 3]\nclass = E", fillcolor="#e6853f"] ;
132 -> 133 ;
134 [label="EstimatedSalary <= -0.733\ngini = 0.107\nsamples = 53\nvalue = [50, 3]\nclass = E", fillcolor="#e78945"] ;
133 -> 134 ;
135 [label="Age <= -0.704\ngini = 0.074\nsamples = 52\nvalue = [50, 2]\nclass = E", fillcolor="#e68641"] ;
134 -> 135 ;
136 [label="gini = 0.0\nsamples = 32\nvalue = [32, 0]\nclass = E", fillcolor="#e58139"] ;
135 -> 136 ;
137 [label="Age <= -0.513\ngini = 0.18\nsamples = 20\nvalue = [18, 2]\nclass = E", fillcolor="#e88f4f"] ;
135 -> 137 ;
138 [label="Balance <= 0.946\ngini = 0.346\nsamples = 9\nvalue = [7, 2]\nclass = E", fillcolor="#eca572"] ;
137 -> 138 ;
139 [label="gini = 0.0\nsamples = 1\nvalue = [0, 1]\nclass = x", fillcolor="#399de5"] ;
138 -> 139 ;
140 [label="Tenure <= 0.528\ngini = 0.219\nsamples = 8\nvalue = [7, 1]\nclass = E", fillcolor="#e99355"] ;
138 -> 140 ;
141 [label="gini = 0.0\nsamples = 5\nvalue = [5, 0]\nclass = E", fillcolor="#e58139"] ;
140 -> 141 ;
142 [label="Balance <= 1.197\ngini = 0.444\nsamples = 3\nvalue = [2, 1]\nclass = E", fillcolor="#f2c09c"] ;
140 -> 142 ;
143 [label="gini = 0.0\nsamples = 2\nvalue = [2, 0]\nclass = E", fillcolor="#e58139"] ;
142 -> 143 ;
144 [label="gini = 0.0\nsamples = 1\nvalue = [0, 1]\nclass = x", fillcolor="#399de5"] ;
142 -> 144 ;
145 [label="gini = 0.0\nsamples = 11\nvalue = [11, 0]\nclass = E", fillcolor="#e58139"] ;
137 -> 145 ;
146 [label="gini = 0.0\nsamples = 1\nvalue = [0, 1]\nclass = x", fillcolor="#399de5"] ;
134 -> 146 ;
147 [label="gini = 0.0\nsamples = 51\nvalue = [51, 0]\nclass = E", fillcolor="#e58139"] ;
133 -> 147 ;
148 [label="CreditScore <= 1.078\ngini = 0.298\nsamples = 11\nvalue = [9, 2]\nclass = E", fillcolor="#eb9d65"] ;
132 -> 148 ;
149 [label="gini = 0.0\nsamples = 1\nvalue = [0, 1]\nclass = x", fillcolor="#399de5"] ;
148 -> 149 ;
150 [label="EstimatedSalary <= -0.269\ngini = 0.18\nsamples = 10\nvalue = [9, 1]\nclass = E", fillcolor="#e88f4f"] ;
148 -> 150 ;
151 [label="gini = 0.0\nsamples = 8\nvalue = [8, 0]\nclass = E", fillcolor="#e58139"] ;
150 -> 151 ;
152 [label="Tenure <= 0.355\ngini = 0.5\nsamples = 2\nvalue = [1, 1]\nclass = E", fillcolor="#ffffff"] ;
150 -> 152 ;
153 [label="gini = 0.0\nsamples = 1\nvalue = [1, 0]\nclass = E", fillcolor="#e58139"] ;
152 -> 153 ;
154 [label="gini = 0.0\nsamples = 1\nvalue = [0, 1]\nclass = x", fillcolor="#399de5"] ;
152 -> 154 ;
155 [label="gini = 0.0\nsamples = 1\nvalue = [0, 1]\nclass = x", fillcolor="#399de5"] ;
119 -> 155 ;
156 [label="gini = 0.0\nsamples = 95\nvalue = [95, 0]\nclass = E", fillcolor="#e58139"] ;
118 -> 156 ;
157 [label="EstimatedSalary <= 0.84\ngini = 0.149\nsamples = 148\nvalue = [136, 12]\nclass = E", fillcolor="#e78c4a"] ;
97 -> 157 ;
158 [label="gini = 0.0\nsamples = 1\nvalue = [0, 1]\nclass = x", fillcolor="#399de5"] ;
157 -> 158 ;
159 [label="EstimatedSalary <= 0.901\ngini = 0.138\nsamples = 147\nvalue = [136, 11]\nclass = E", fillcolor="#e78b49"] ;
157 -> 159 ;
160 [label="Age <= -0.942\ngini = 0.397\nsamples = 11\nvalue = [8, 3]\nclass = E", fillcolor="#efb083"] ;
159 -> 160 ;
161 [label="Age <= -1.704\ngini = 0.375\nsamples = 4\nvalue = [1, 3]\nclass = x", fillcolor="#7bbeee"] ;
160 -> 161 ;
162 [label="gini = 0.0\nsamples = 1\nvalue = [1, 0]\nclass = E", fillcolor="#e58139"] ;
161 -> 162 ;
163 [label="gini = 0.0\nsamples = 3\nvalue = [0, 3]\nclass = x", fillcolor="#399de5"] ;
161 -> 163 ;
164 [label="gini = 0.0\nsamples = 7\nvalue = [7, 0]\nclass = E", fillcolor="#e58139"] ;
160 -> 164 ;
165 [label="Tenure <= -1.547\ngini = 0.111\nsamples = 136\nvalue = [128, 8]\nclass = E", fillcolor="#e78945"] ;
159 -> 165 ;
166 [label="HasCrCard <= -0.45\ngini = 0.444\nsamples = 6\nvalue = [4, 2]\nclass = E", fillcolor="#f2c09c"] ;
165 -> 166 ;
167 [label="gini = 0.0\nsamples = 1\nvalue = [0, 1]\nclass = x", fillcolor="#399de5"] ;
166 -> 167 ;
168 [label="Balance <= 1.07\ngini = 0.32\nsamples = 5\nvalue = [4, 1]\nclass = E", fillcolor="#eca06a"] ;
166 -> 168 ;
169 [label="gini = 0.0\nsamples = 4\nvalue = [4, 0]\nclass = E", fillcolor="#e58139"] ;
168 -> 169 ;
170 [label="gini = 0.0\nsamples = 1\nvalue = [0, 1]\nclass = x", fillcolor="#399de5"] ;
168 -> 170 ;
171 [label="Age <= -0.323\ngini = 0.088\nsamples = 130\nvalue = [124, 6]\nclass = E", fillcolor="#e68743"] ;
165 -> 171 ;
172 [label="Balance <= 1.535\ngini = 0.065\nsamples = 119\nvalue = [115, 4]\nclass = E", fillcolor="#e68540"] ;
171 -> 172 ;
173 [label="EstimatedSalary <= 1.094\ngini = 0.051\nsamples = 115\nvalue = [112, 3]\nclass = E", fillcolor="#e6843e"] ;
172 -> 173 ;
174 [label="CreditScore <= 1.224\ngini = 0.153\nsamples = 24\nvalue = [22, 2]\nclass = E", fillcolor="#e78c4b"] ;
173 -> 174 ;
175 [label="EstimatedSalary <= 1.093\ngini = 0.083\nsamples = 23\nvalue = [22, 1]\nclass = E", fillcolor="#e68742"] ;
174 -> 175 ;
176 [label="gini = 0.0\nsamples = 22\nvalue = [22, 0]\nclass = E", fillcolor="#e58139"] ;
175 -> 176 ;
177 [label="gini = 0.0\nsamples = 1\nvalue = [0, 1]\nclass = x", fillcolor="#399de5"] ;
175 -> 177 ;
178 [label="gini = 0.0\nsamples = 1\nvalue = [0, 1]\nclass = x", fillcolor="#399de5"] ;
174 -> 178 ;
179 [label="EstimatedSalary <= 1.667\ngini = 0.022\nsamples = 91\nvalue = [90, 1]\nclass = E", fillcolor="#e5823b"] ;
173 -> 179 ;
180 [label="gini = 0.0\nsamples = 83\nvalue = [83, 0]\nclass = E", fillcolor="#e58139"] ;
179 -> 180 ;
181 [label="EstimatedSalary <= 1.675\ngini = 0.219\nsamples = 8\nvalue = [7, 1]\nclass = E", fillcolor="#e99355"] ;
179 -> 181 ;
182 [label="gini = 0.0\nsamples = 1\nvalue = [0, 1]\nclass = x", fillcolor="#399de5"] ;
181 -> 182 ;
183 [label="gini = 0.0\nsamples = 7\nvalue = [7, 0]\nclass = E", fillcolor="#e58139"] ;
181 -> 183 ;
184 [label="IsActiveMember <= -0.035\ngini = 0.375\nsamples = 4\nvalue = [3, 1]\nclass = E", fillcolor="#eeab7b"] ;
172 -> 184 ;
185 [label="gini = 0.0\nsamples = 1\nvalue = [0, 1]\nclass = x", fillcolor="#399de5"] ;
184 -> 185 ;
186 [label="gini = 0.0\nsamples = 3\nvalue = [3, 0]\nclass = E", fillcolor="#e58139"] ;
184 -> 186 ;
187 [label="Balance <= 1.269\ngini = 0.298\nsamples = 11\nvalue = [9, 2]\nclass = E", fillcolor="#eb9d65"] ;
171 -> 187 ;
188 [label="CreditScore <= -1.262\ngini = 0.18\nsamples = 10\nvalue = [9, 1]\nclass = E", fillcolor="#e88f4f"] ;
187 -> 188 ;
189 [label="gini = 0.0\nsamples = 1\nvalue = [0, 1]\nclass = x", fillcolor="#399de5"] ;
188 -> 189 ;
190 [label="gini = 0.0\nsamples = 9\nvalue = [9, 0]\nclass = E", fillcolor="#e58139"] ;
188 -> 190 ;
191 [label="gini = 0.0\nsamples = 1\nvalue = [0, 1]\nclass = x", fillcolor="#399de5"] ;
187 -> 191 ;
192 [label="EstimatedSalary <= 1.631\ngini = 0.195\nsamples = 119\nvalue = [106, 13]\nclass = E", fillcolor="#e89051"] ;
96 -> 192 ;
193 [label="Balance <= -0.124\ngini = 0.172\nsamples = 116\nvalue = [105, 11]\nclass = E", fillcolor="#e88e4e"] ;
192 -> 193 ;
194 [label="Balance <= -0.185\ngini = 0.5\nsamples = 4\nvalue = [2, 2]\nclass = E", fillcolor="#ffffff"] ;
193 -> 194 ;
195 [label="gini = 0.0\nsamples = 1\nvalue = [1, 0]\nclass = E", fillcolor="#e58139"] ;
194 -> 195 ;
196 [label="Tenure <= 1.22\ngini = 0.444\nsamples = 3\nvalue = [1, 2]\nclass = x", fillcolor="#9ccef2"] ;
194 -> 196 ;
197 [label="gini = 0.0\nsamples = 2\nvalue = [0, 2]\nclass = x", fillcolor="#399de5"] ;
196 -> 197 ;
198 [label="gini = 0.0\nsamples = 1\nvalue = [1, 0]\nclass = E", fillcolor="#e58139"] ;
196 -> 198 ;
199 [label="EstimatedSalary <= -1.351\ngini = 0.148\nsamples = 112\nvalue = [103, 9]\nclass = E", fillcolor="#e78c4a"] ;
193 -> 199 ;
200 [label="Tenure <= -1.028\ngini = 0.42\nsamples = 10\nvalue = [7, 3]\nclass = E", fillcolor="#f0b78e"] ;
199 -> 200 ;
201 [label="gini = 0.0\nsamples = 2\nvalue = [0, 2]\nclass = x", fillcolor="#399de5"] ;
200 -> 201 ;
202 [label="CreditScore <= -1.423\ngini = 0.219\nsamples = 8\nvalue = [7, 1]\nclass = E", fillcolor="#e99355"] ;
200 -> 202 ;
203 [label="gini = 0.0\nsamples = 1\nvalue = [0, 1]\nclass = x", fillcolor="#399de5"] ;
202 -> 203 ;
204 [label="gini = 0.0\nsamples = 7\nvalue = [7, 0]\nclass = E", fillcolor="#e58139"] ;
202 -> 204 ;
205 [label="Balance <= 0.335\ngini = 0.111\nsamples = 102\nvalue = [96, 6]\nclass = E", fillcolor="#e78945"] ;
199 -> 205 ;
206 [label="EstimatedSalary <= 1.123\ngini = 0.255\nsamples = 20\nvalue = [17, 3]\nclass = E", fillcolor="#ea975c"] ;
205 -> 206 ;
207 [label="Balance <= 0.327\ngini = 0.111\nsamples = 17\nvalue = [16, 1]\nclass = E", fillcolor="#e78945"] ;
206 -> 207 ;
208 [label="gini = 0.0\nsamples = 16\nvalue = [16, 0]\nclass = E", fillcolor="#e58139"] ;
207 -> 208 ;
209 [label="gini = 0.0\nsamples = 1\nvalue = [0, 1]\nclass = x", fillcolor="#399de5"] ;
207 -> 209 ;
210 [label="Balance <= 0.035\ngini = 0.444\nsamples = 3\nvalue = [1, 2]\nclass = x", fillcolor="#9ccef2"] ;
206 -> 210 ;
211 [label="gini = 0.0\nsamples = 1\nvalue = [1, 0]\nclass = E", fillcolor="#e58139"] ;
210 -> 211 ;
212 [label="gini = 0.0\nsamples = 2\nvalue = [0, 2]\nclass = x", fillcolor="#399de5"] ;
210 -> 212 ;
213 [label="Tenure <= 1.566\ngini = 0.07\nsamples = 82\nvalue = [79, 3]\nclass = E", fillcolor="#e68641"] ;
205 -> 213 ;
214 [label="CreditScore <= 1.12\ngini = 0.05\nsamples = 78\nvalue = [76, 2]\nclass = E", fillcolor="#e6843e"] ;
213 -> 214 ;
215 [label="gini = 0.0\nsamples = 63\nvalue = [63, 0]\nclass = E", fillcolor="#e58139"] ;
214 -> 215 ;
216 [label="CreditScore <= 1.208\ngini = 0.231\nsamples = 15\nvalue = [13, 2]\nclass = E", fillcolor="#e99457"] ;
214 -> 216 ;
217 [label="gini = 0.0\nsamples = 1\nvalue = [0, 1]\nclass = x", fillcolor="#399de5"] ;
216 -> 217 ;
218 [label="EstimatedSalary <= -0.459\ngini = 0.133\nsamples = 14\nvalue = [13, 1]\nclass = E", fillcolor="#e78b48"] ;
216 -> 218 ;
219 [label="Tenure <= -0.337\ngini = 0.5\nsamples = 2\nvalue = [1, 1]\nclass = E", fillcolor="#ffffff"] ;
218 -> 219 ;
220 [label="gini = 0.0\nsamples = 1\nvalue = [0, 1]\nclass = x", fillcolor="#399de5"] ;
219 -> 220 ;
221 [label="gini = 0.0\nsamples = 1\nvalue = [1, 0]\nclass = E", fillcolor="#e58139"] ;
219 -> 221 ;
222 [label="gini = 0.0\nsamples = 12\nvalue = [12, 0]\nclass = E", fillcolor="#e58139"] ;
218 -> 222 ;
223 [label="Gender <= -0.096\ngini = 0.375\nsamples = 4\nvalue = [3, 1]\nclass = E", fillcolor="#eeab7b"] ;
213 -> 223 ;
224 [label="Balance <= 0.606\ngini = 0.5\nsamples = 2\nvalue = [1, 1]\nclass = E", fillcolor="#ffffff"] ;
223 -> 224 ;
225 [label="gini = 0.0\nsamples = 1\nvalue = [1, 0]\nclass = E", fillcolor="#e58139"] ;
224 -> 225 ;
226 [label="gini = 0.0\nsamples = 1\nvalue = [0, 1]\nclass = x", fillcolor="#399de5"] ;
224 -> 226 ;
227 [label="gini = 0.0\nsamples = 2\nvalue = [2, 0]\nclass = E", fillcolor="#e58139"] ;
223 -> 227 ;
228 [label="HasCrCard <= -0.45\ngini = 0.444\nsamples = 3\nvalue = [1, 2]\nclass = x", fillcolor="#9ccef2"] ;
192 -> 228 ;
229 [label="gini = 0.0\nsamples = 2\nvalue = [0, 2]\nclass = x", fillcolor="#399de5"] ;
228 -> 229 ;
230 [label="gini = 0.0\nsamples = 1\nvalue = [1, 0]\nclass = E", fillcolor="#e58139"] ;
228 -> 230 ;
231 [label="Gender <= -0.096\ngini = 0.461\nsamples = 25\nvalue = [16, 9]\nclass = E", fillcolor="#f4c8a8"] ;
95 -> 231 ;
232 [label="CreditScore <= 0.574\ngini = 0.486\nsamples = 12\nvalue = [5, 7]\nclass = x", fillcolor="#c6e3f8"] ;
231 -> 232 ;
233 [label="Tenure <= -1.201\ngini = 0.469\nsamples = 8\nvalue = [5, 3]\nclass = E", fillcolor="#f5cdb0"] ;
232 -> 233 ;
234 [label="gini = 0.0\nsamples = 3\nvalue = [3, 0]\nclass = E", fillcolor="#e58139"] ;
233 -> 234 ;
235 [label="Tenure <= 0.009\ngini = 0.48\nsamples = 5\nvalue = [2, 3]\nclass = x", fillcolor="#bddef6"] ;
233 -> 235 ;
236 [label="gini = 0.0\nsamples = 3\nvalue = [0, 3]\nclass = x", fillcolor="#399de5"] ;
235 -> 236 ;
237 [label="gini = 0.0\nsamples = 2\nvalue = [2, 0]\nclass = E", fillcolor="#e58139"] ;
235 -> 237 ;
238 [label="gini = 0.0\nsamples = 4\nvalue = [0, 4]\nclass = x", fillcolor="#399de5"] ;
232 -> 238 ;
239 [label="Balance <= 1.667\ngini = 0.26\nsamples = 13\nvalue = [11, 2]\nclass = E", fillcolor="#ea985d"] ;
231 -> 239 ;
240 [label="gini = 0.0\nsamples = 1\nvalue = [0, 1]\nclass = x", fillcolor="#399de5"] ;
239 -> 240 ;
241 [label="EstimatedSalary <= -0.857\ngini = 0.153\nsamples = 12\nvalue = [11, 1]\nclass = E", fillcolor="#e78c4b"] ;
239 -> 241 ;
242 [label="Tenure <= -0.337\ngini = 0.5\nsamples = 2\nvalue = [1, 1]\nclass = E", fillcolor="#ffffff"] ;
241 -> 242 ;
243 [label="gini = 0.0\nsamples = 1\nvalue = [1, 0]\nclass = E", fillcolor="#e58139"] ;
242 -> 243 ;
244 [label="gini = 0.0\nsamples = 1\nvalue = [0, 1]\nclass = x", fillcolor="#399de5"] ;
242 -> 244 ;
245 [label="gini = 0.0\nsamples = 10\nvalue = [10, 0]\nclass = E", fillcolor="#e58139"] ;
241 -> 245 ;
246 [label="CreditScore <= -2.499\ngini = 0.299\nsamples = 857\nvalue = [700, 157]\nclass = E", fillcolor="#eb9d65"] ;
4 -> 246 ;
247 [label="gini = 0.0\nsamples = 4\nvalue = [0, 4]\nclass = x", fillcolor="#399de5"] ;
246 -> 247 ;
248 [label="IsActiveMember <= -0.035\ngini = 0.294\nsamples = 853\nvalue = [700, 153]\nclass = E", fillcolor="#eb9d64"] ;
246 -> 248 ;
249 [label="Balance <= 0.763\ngini = 0.356\nsamples = 415\nvalue = [319, 96]\nclass = E", fillcolor="#eda775"] ;
248 -> 249 ;
250 [label="Balance <= 0.464\ngini = 0.401\nsamples = 249\nvalue = [180, 69]\nclass = E", fillcolor="#efb185"] ;
249 -> 250 ;
251 [label="Balance <= -0.256\ngini = 0.338\nsamples = 167\nvalue = [131, 36]\nclass = E", fillcolor="#eca46f"] ;
250 -> 251 ;
252 [label="EstimatedSalary <= 0.358\ngini = 0.444\nsamples = 66\nvalue = [44, 22]\nclass = E", fillcolor="#f2c09c"] ;
251 -> 252 ;
253 [label="Balance <= -0.639\ngini = 0.488\nsamples = 45\nvalue = [26, 19]\nclass = E", fillcolor="#f8ddca"] ;
252 -> 253 ;
254 [label="Age <= -0.132\ngini = 0.464\nsamples = 41\nvalue = [26, 15]\nclass = E", fillcolor="#f4caab"] ;
253 -> 254 ;
255 [label="Gender <= -0.096\ngini = 0.432\nsamples = 38\nvalue = [26, 12]\nclass = E", fillcolor="#f1bb94"] ;
254 -> 255 ;
256 [label="Age <= -0.323\ngini = 0.49\nsamples = 21\nvalue = [12, 9]\nclass = E", fillcolor="#f8e0ce"] ;
255 -> 256 ;
257 [label="Tenure <= 1.566\ngini = 0.5\nsamples = 18\nvalue = [9, 9]\nclass = E", fillcolor="#ffffff"] ;
256 -> 257 ;
258 [label="Age <= -0.608\ngini = 0.492\nsamples = 16\nvalue = [7, 9]\nclass = x", fillcolor="#d3e9f9"] ;
257 -> 258 ;
259 [label="EstimatedSalary <= -1.248\ngini = 0.486\nsamples = 12\nvalue = [7, 5]\nclass = E", fillcolor="#f8dbc6"] ;
258 -> 259 ;
260 [label="gini = 0.0\nsamples = 3\nvalue = [3, 0]\nclass = E", fillcolor="#e58139"] ;
259 -> 260 ;
261 [label="Tenure <= -0.682\ngini = 0.494\nsamples = 9\nvalue = [4, 5]\nclass = x", fillcolor="#d7ebfa"] ;
259 -> 261 ;
262 [label="gini = 0.0\nsamples = 3\nvalue = [0, 3]\nclass = x", fillcolor="#399de5"] ;
261 -> 262 ;
263 [label="EstimatedSalary <= -0.501\ngini = 0.444\nsamples = 6\nvalue = [4, 2]\nclass = E", fillcolor="#f2c09c"] ;
261 -> 263 ;
264 [label="CreditScore <= 0.36\ngini = 0.444\nsamples = 3\nvalue = [1, 2]\nclass = x", fillcolor="#9ccef2"] ;
263 -> 264 ;
265 [label="gini = 0.0\nsamples = 2\nvalue = [0, 2]\nclass = x", fillcolor="#399de5"] ;
264 -> 265 ;
266 [label="gini = 0.0\nsamples = 1\nvalue = [1, 0]\nclass = E", fillcolor="#e58139"] ;
264 -> 266 ;
267 [label="gini = 0.0\nsamples = 3\nvalue = [3, 0]\nclass = E", fillcolor="#e58139"] ;
263 -> 267 ;
268 [label="gini = 0.0\nsamples = 4\nvalue = [0, 4]\nclass = x", fillcolor="#399de5"] ;
258 -> 268 ;
269 [label="gini = 0.0\nsamples = 2\nvalue = [2, 0]\nclass = E", fillcolor="#e58139"] ;
257 -> 269 ;
270 [label="gini = 0.0\nsamples = 3\nvalue = [3, 0]\nclass = E", fillcolor="#e58139"] ;
256 -> 270 ;
271 [label="CreditScore <= -0.399\ngini = 0.291\nsamples = 17\nvalue = [14, 3]\nclass = E", fillcolor="#eb9c63"] ;
255 -> 271 ;
272 [label="CreditScore <= -1.017\ngini = 0.5\nsamples = 6\nvalue = [3, 3]\nclass = E", fillcolor="#ffffff"] ;
271 -> 272 ;
273 [label="gini = 0.0\nsamples = 3\nvalue = [3, 0]\nclass = E", fillcolor="#e58139"] ;
272 -> 273 ;
274 [label="gini = 0.0\nsamples = 3\nvalue = [0, 3]\nclass = x", fillcolor="#399de5"] ;
272 -> 274 ;
275 [label="gini = 0.0\nsamples = 11\nvalue = [11, 0]\nclass = E", fillcolor="#e58139"] ;
271 -> 275 ;
276 [label="gini = 0.0\nsamples = 3\nvalue = [0, 3]\nclass = x", fillcolor="#399de5"] ;
254 -> 276 ;
277 [label="gini = 0.0\nsamples = 4\nvalue = [0, 4]\nclass = x", fillcolor="#399de5"] ;
253 -> 277 ;
278 [label="Tenure <= 1.393\ngini = 0.245\nsamples = 21\nvalue = [18, 3]\nclass = E", fillcolor="#e9965a"] ;
252 -> 278 ;
279 [label="CreditScore <= 0.366\ngini = 0.18\nsamples = 20\nvalue = [18, 2]\nclass = E", fillcolor="#e88f4f"] ;
278 -> 279 ;
280 [label="gini = 0.0\nsamples = 13\nvalue = [13, 0]\nclass = E", fillcolor="#e58139"] ;
279 -> 280 ;
281 [label="CreditScore <= 0.568\ngini = 0.408\nsamples = 7\nvalue = [5, 2]\nclass = E", fillcolor="#efb388"] ;
279 -> 281 ;
282 [label="gini = 0.0\nsamples = 1\nvalue = [0, 1]\nclass = x", fillcolor="#399de5"] ;
281 -> 282 ;
283 [label="EstimatedSalary <= 1.152\ngini = 0.278\nsamples = 6\nvalue = [5, 1]\nclass = E", fillcolor="#ea9a61"] ;
281 -> 283 ;
284 [label="gini = 0.0\nsamples = 4\nvalue = [4, 0]\nclass = E", fillcolor="#e58139"] ;
283 -> 284 ;
285 [label="HasCrCard <= -0.45\ngini = 0.5\nsamples = 2\nvalue = [1, 1]\nclass = E", fillcolor="#ffffff"] ;
283 -> 285 ;
286 [label="gini = 0.0\nsamples = 1\nvalue = [0, 1]\nclass = x", fillcolor="#399de5"] ;
285 -> 286 ;
287 [label="gini = 0.0\nsamples = 1\nvalue = [1, 0]\nclass = E", fillcolor="#e58139"] ;
285 -> 287 ;
288 [label="gini = 0.0\nsamples = 1\nvalue = [0, 1]\nclass = x", fillcolor="#399de5"] ;
278 -> 288 ;
289 [label="CreditScore <= 2.003\ngini = 0.239\nsamples = 101\nvalue = [87, 14]\nclass = E", fillcolor="#e99559"] ;
251 -> 289 ;
290 [label="Age <= -1.085\ngini = 0.226\nsamples = 100\nvalue = [87, 13]\nclass = E", fillcolor="#e99457"] ;
289 -> 290 ;
291 [label="gini = 0.0\nsamples = 19\nvalue = [19, 0]\nclass = E", fillcolor="#e58139"] ;
290 -> 291 ;
292 [label="HasCrCard <= -0.45\ngini = 0.269\nsamples = 81\nvalue = [68, 13]\nclass = E", fillcolor="#ea995f"] ;
290 -> 292 ;
293 [label="Gender <= -0.096\ngini = 0.133\nsamples = 28\nvalue = [26, 2]\nclass = E", fillcolor="#e78b48"] ;
292 -> 293 ;
294 [label="Balance <= 0.307\ngini = 0.375\nsamples = 8\nvalue = [6, 2]\nclass = E", fillcolor="#eeab7b"] ;
293 -> 294 ;
295 [label="Balance <= 0.023\ngini = 0.245\nsamples = 7\nvalue = [6, 1]\nclass = E", fillcolor="#e9965a"] ;
294 -> 295 ;
296 [label="EstimatedSalary <= 0.257\ngini = 0.5\nsamples = 2\nvalue = [1, 1]\nclass = E", fillcolor="#ffffff"] ;
295 -> 296 ;
297 [label="gini = 0.0\nsamples = 1\nvalue = [0, 1]\nclass = x", fillcolor="#399de5"] ;
296 -> 297 ;
298 [label="gini = 0.0\nsamples = 1\nvalue = [1, 0]\nclass = E", fillcolor="#e58139"] ;
296 -> 298 ;
299 [label="gini = 0.0\nsamples = 5\nvalue = [5, 0]\nclass = E", fillcolor="#e58139"] ;
295 -> 299 ;
300 [label="gini = 0.0\nsamples = 1\nvalue = [0, 1]\nclass = x", fillcolor="#399de5"] ;
294 -> 300 ;
301 [label="gini = 0.0\nsamples = 20\nvalue = [20, 0]\nclass = E", fillcolor="#e58139"] ;
293 -> 301 ;
302 [label="EstimatedSalary <= -0.653\ngini = 0.329\nsamples = 53\nvalue = [42, 11]\nclass = E", fillcolor="#eca26d"] ;
292 -> 302 ;
303 [label="EstimatedSalary <= -1.593\ngini = 0.188\nsamples = 19\nvalue = [17, 2]\nclass = E", fillcolor="#e89050"] ;
302 -> 303 ;
304 [label="EstimatedSalary <= -1.664\ngini = 0.444\nsamples = 6\nvalue = [4, 2]\nclass = E", fillcolor="#f2c09c"] ;
303 -> 304 ;
305 [label="gini = 0.0\nsamples = 3\nvalue = [3, 0]\nclass = E", fillcolor="#e58139"] ;
304 -> 305 ;
306 [label="Tenure <= 0.355\ngini = 0.444\nsamples = 3\nvalue = [1, 2]\nclass = x", fillcolor="#9ccef2"] ;
304 -> 306 ;
307 [label="gini = 0.0\nsamples = 2\nvalue = [0, 2]\nclass = x", fillcolor="#399de5"] ;
306 -> 307 ;
308 [label="gini = 0.0\nsamples = 1\nvalue = [1, 0]\nclass = E", fillcolor="#e58139"] ;
306 -> 308 ;
309 [label="gini = 0.0\nsamples = 13\nvalue = [13, 0]\nclass = E", fillcolor="#e58139"] ;
303 -> 309 ;
310 [label="EstimatedSalary <= -0.627\ngini = 0.389\nsamples = 34\nvalue = [25, 9]\nclass = E", fillcolor="#eeae80"] ;
302 -> 310 ;
311 [label="gini = 0.0\nsamples = 1\nvalue = [0, 1]\nclass = x", fillcolor="#399de5"] ;
310 -> 311 ;
312 [label="CreditScore <= -1.579\ngini = 0.367\nsamples = 33\nvalue = [25, 8]\nclass = E", fillcolor="#eda978"] ;
310 -> 312 ;
313 [label="gini = 0.0\nsamples = 1\nvalue = [0, 1]\nclass = x", fillcolor="#399de5"] ;
312 -> 313 ;
314 [label="Tenure <= -1.547\ngini = 0.342\nsamples = 32\nvalue = [25, 7]\nclass = E", fillcolor="#eca470"] ;
312 -> 314 ;
315 [label="gini = 0.0\nsamples = 1\nvalue = [0, 1]\nclass = x", fillcolor="#399de5"] ;
314 -> 315 ;
316 [label="Tenure <= -0.509\ngini = 0.312\nsamples = 31\nvalue = [25, 6]\nclass = E", fillcolor="#eb9f69"] ;
314 -> 316 ;
317 [label="gini = 0.0\nsamples = 9\nvalue = [9, 0]\nclass = E", fillcolor="#e58139"] ;
316 -> 317 ;
318 [label="Balance <= -0.136\ngini = 0.397\nsamples = 22\nvalue = [16, 6]\nclass = E", fillcolor="#efb083"] ;
316 -> 318 ;
319 [label="gini = 0.0\nsamples = 1\nvalue = [0, 1]\nclass = x", fillcolor="#399de5"] ;
318 -> 319 ;
320 [label="EstimatedSalary <= 1.507\ngini = 0.363\nsamples = 21\nvalue = [16, 5]\nclass = E", fillcolor="#eda877"] ;
318 -> 320 ;
321 [label="Balance <= 0.04\ngini = 0.32\nsamples = 20\nvalue = [16, 4]\nclass = E", fillcolor="#eca06a"] ;
320 -> 321 ;
322 [label="gini = 0.0\nsamples = 5\nvalue = [5, 0]\nclass = E", fillcolor="#e58139"] ;
321 -> 322 ;
323 [label="Balance <= 0.071\ngini = 0.391\nsamples = 15\nvalue = [11, 4]\nclass = E", fillcolor="#eeaf81"] ;
321 -> 323 ;
324 [label="gini = 0.0\nsamples = 2\nvalue = [0, 2]\nclass = x", fillcolor="#399de5"] ;
323 -> 324 ;
325 [label="Tenure <= 1.566\ngini = 0.26\nsamples = 13\nvalue = [11, 2]\nclass = E", fillcolor="#ea985d"] ;
323 -> 325 ;
326 [label="EstimatedSalary <= 0.61\ngini = 0.153\nsamples = 12\nvalue = [11, 1]\nclass = E", fillcolor="#e78c4b"] ;
325 -> 326 ;
327 [label="gini = 0.0\nsamples = 8\nvalue = [8, 0]\nclass = E", fillcolor="#e58139"] ;
326 -> 327 ;
328 [label="CreditScore <= -0.128\ngini = 0.375\nsamples = 4\nvalue = [3, 1]\nclass = E", fillcolor="#eeab7b"] ;
326 -> 328 ;
329 [label="gini = 0.0\nsamples = 1\nvalue = [0, 1]\nclass = x", fillcolor="#399de5"] ;
328 -> 329 ;
330 [label="gini = 0.0\nsamples = 3\nvalue = [3, 0]\nclass = E", fillcolor="#e58139"] ;
328 -> 330 ;
331 [label="gini = 0.0\nsamples = 1\nvalue = [0, 1]\nclass = x", fillcolor="#399de5"] ;
325 -> 331 ;
332 [label="gini = 0.0\nsamples = 1\nvalue = [0, 1]\nclass = x", fillcolor="#399de5"] ;
320 -> 332 ;
333 [label="gini = 0.0\nsamples = 1\nvalue = [0, 1]\nclass = x", fillcolor="#399de5"] ;
289 -> 333 ;
334 [label="Geography <= 0.903\ngini = 0.481\nsamples = 82\nvalue = [49, 33]\nclass = E", fillcolor="#f7d6be"] ;
250 -> 334 ;
335 [label="Age <= -0.418\ngini = 0.496\nsamples = 53\nvalue = [24, 29]\nclass = x", fillcolor="#ddeefb"] ;
334 -> 335 ;
336 [label="EstimatedSalary <= 1.393\ngini = 0.496\nsamples = 33\nvalue = [18, 15]\nclass = E", fillcolor="#fbeade"] ;
335 -> 336 ;
337 [label="Age <= -1.18\ngini = 0.48\nsamples = 30\nvalue = [18, 12]\nclass = E", fillcolor="#f6d5bd"] ;
336 -> 337 ;
338 [label="Balance <= 0.633\ngini = 0.469\nsamples = 8\nvalue = [3, 5]\nclass = x", fillcolor="#b0d8f5"] ;
337 -> 338 ;
339 [label="Age <= -1.466\ngini = 0.48\nsamples = 5\nvalue = [3, 2]\nclass = E", fillcolor="#f6d5bd"] ;
338 -> 339 ;
340 [label="gini = 0.0\nsamples = 2\nvalue = [2, 0]\nclass = E", fillcolor="#e58139"] ;
339 -> 340 ;
341 [label="Balance <= 0.598\ngini = 0.444\nsamples = 3\nvalue = [1, 2]\nclass = x", fillcolor="#9ccef2"] ;
339 -> 341 ;
342 [label="gini = 0.0\nsamples = 2\nvalue = [0, 2]\nclass = x", fillcolor="#399de5"] ;
341 -> 342 ;
343 [label="gini = 0.0\nsamples = 1\nvalue = [1, 0]\nclass = E", fillcolor="#e58139"] ;
341 -> 343 ;
344 [label="gini = 0.0\nsamples = 3\nvalue = [0, 3]\nclass = x", fillcolor="#399de5"] ;
338 -> 344 ;
345 [label="Balance <= 0.561\ngini = 0.434\nsamples = 22\nvalue = [15, 7]\nclass = E", fillcolor="#f1bc95"] ;
337 -> 345 ;
346 [label="CreditScore <= 0.454\ngini = 0.49\nsamples = 7\nvalue = [3, 4]\nclass = x", fillcolor="#cee6f8"] ;
345 -> 346 ;
347 [label="Age <= -0.894\ngini = 0.48\nsamples = 5\nvalue = [3, 2]\nclass = E", fillcolor="#f6d5bd"] ;
346 -> 347 ;
348 [label="gini = 0.0\nsamples = 2\nvalue = [2, 0]\nclass = E", fillcolor="#e58139"] ;
347 -> 348 ;
349 [label="Age <= -0.608\ngini = 0.444\nsamples = 3\nvalue = [1, 2]\nclass = x", fillcolor="#9ccef2"] ;
347 -> 349 ;
350 [label="gini = 0.0\nsamples = 2\nvalue = [0, 2]\nclass = x", fillcolor="#399de5"] ;
349 -> 350 ;
351 [label="gini = 0.0\nsamples = 1\nvalue = [1, 0]\nclass = E", fillcolor="#e58139"] ;
349 -> 351 ;
352 [label="gini = 0.0\nsamples = 2\nvalue = [0, 2]\nclass = x", fillcolor="#399de5"] ;
346 -> 352 ;
353 [label="CreditScore <= 0.137\ngini = 0.32\nsamples = 15\nvalue = [12, 3]\nclass = E", fillcolor="#eca06a"] ;
345 -> 353 ;
354 [label="Age <= -0.513\ngini = 0.469\nsamples = 8\nvalue = [5, 3]\nclass = E", fillcolor="#f5cdb0"] ;
353 -> 354 ;
355 [label="Age <= -0.704\ngini = 0.408\nsamples = 7\nvalue = [5, 2]\nclass = E", fillcolor="#efb388"] ;
354 -> 355 ;
356 [label="CreditScore <= -0.726\ngini = 0.5\nsamples = 4\nvalue = [2, 2]\nclass = E", fillcolor="#ffffff"] ;
355 -> 356 ;
357 [label="gini = 0.0\nsamples = 1\nvalue = [0, 1]\nclass = x", fillcolor="#399de5"] ;
356 -> 357 ;
358 [label="CreditScore <= -0.066\ngini = 0.444\nsamples = 3\nvalue = [2, 1]\nclass = E", fillcolor="#f2c09c"] ;
356 -> 358 ;
359 [label="gini = 0.0\nsamples = 2\nvalue = [2, 0]\nclass = E", fillcolor="#e58139"] ;
358 -> 359 ;
360 [label="gini = 0.0\nsamples = 1\nvalue = [0, 1]\nclass = x", fillcolor="#399de5"] ;
358 -> 360 ;
361 [label="gini = 0.0\nsamples = 3\nvalue = [3, 0]\nclass = E", fillcolor="#e58139"] ;
355 -> 361 ;
362 [label="gini = 0.0\nsamples = 1\nvalue = [0, 1]\nclass = x", fillcolor="#399de5"] ;
354 -> 362 ;
363 [label="gini = 0.0\nsamples = 7\nvalue = [7, 0]\nclass = E", fillcolor="#e58139"] ;
353 -> 363 ;
364 [label="gini = 0.0\nsamples = 3\nvalue = [0, 3]\nclass = x", fillcolor="#399de5"] ;
336 -> 364 ;
365 [label="Age <= -0.323\ngini = 0.42\nsamples = 20\nvalue = [6, 14]\nclass = x", fillcolor="#8ec7f0"] ;
335 -> 365 ;
366 [label="gini = 0.0\nsamples = 6\nvalue = [0, 6]\nclass = x", fillcolor="#399de5"] ;
365 -> 366 ;
367 [label="Age <= -0.227\ngini = 0.49\nsamples = 14\nvalue = [6, 8]\nclass = x", fillcolor="#cee6f8"] ;
365 -> 367 ;
368 [label="Balance <= 0.587\ngini = 0.375\nsamples = 4\nvalue = [3, 1]\nclass = E", fillcolor="#eeab7b"] ;
367 -> 368 ;
369 [label="gini = 0.0\nsamples = 1\nvalue = [0, 1]\nclass = x", fillcolor="#399de5"] ;
368 -> 369 ;
370 [label="gini = 0.0\nsamples = 3\nvalue = [3, 0]\nclass = E", fillcolor="#e58139"] ;
368 -> 370 ;
371 [label="CreditScore <= 1.218\ngini = 0.42\nsamples = 10\nvalue = [3, 7]\nclass = x", fillcolor="#8ec7f0"] ;
367 -> 371 ;
372 [label="HasCrCard <= -0.45\ngini = 0.346\nsamples = 9\nvalue = [2, 7]\nclass = x", fillcolor="#72b9ec"] ;
371 -> 372 ;
373 [label="gini = 0.0\nsamples = 3\nvalue = [0, 3]\nclass = x", fillcolor="#399de5"] ;
372 -> 373 ;
374 [label="CreditScore <= -0.076\ngini = 0.444\nsamples = 6\nvalue = [2, 4]\nclass = x", fillcolor="#9ccef2"] ;
372 -> 374 ;
375 [label="gini = 0.0\nsamples = 2\nvalue = [0, 2]\nclass = x", fillcolor="#399de5"] ;
374 -> 375 ;
376 [label="Tenure <= -0.164\ngini = 0.5\nsamples = 4\nvalue = [2, 2]\nclass = E", fillcolor="#ffffff"] ;
374 -> 376 ;
377 [label="gini = 0.0\nsamples = 2\nvalue = [0, 2]\nclass = x", fillcolor="#399de5"] ;
376 -> 377 ;
378 [label="gini = 0.0\nsamples = 2\nvalue = [2, 0]\nclass = E", fillcolor="#e58139"] ;
376 -> 378 ;
379 [label="gini = 0.0\nsamples = 1\nvalue = [1, 0]\nclass = E", fillcolor="#e58139"] ;
371 -> 379 ;
380 [label="CreditScore <= 0.969\ngini = 0.238\nsamples = 29\nvalue = [25, 4]\nclass = E", fillcolor="#e99559"] ;
334 -> 380 ;
381 [label="gini = 0.0\nsamples = 21\nvalue = [21, 0]\nclass = E", fillcolor="#e58139"] ;
380 -> 381 ;
382 [label="CreditScore <= 1.177\ngini = 0.5\nsamples = 8\nvalue = [4, 4]\nclass = E", fillcolor="#ffffff"] ;
380 -> 382 ;
383 [label="Gender <= -0.096\ngini = 0.32\nsamples = 5\nvalue = [1, 4]\nclass = x", fillcolor="#6ab6ec"] ;
382 -> 383 ;
384 [label="EstimatedSalary <= 0.317\ngini = 0.5\nsamples = 2\nvalue = [1, 1]\nclass = E", fillcolor="#ffffff"] ;
383 -> 384 ;
385 [label="gini = 0.0\nsamples = 1\nvalue = [1, 0]\nclass = E", fillcolor="#e58139"] ;
384 -> 385 ;
386 [label="gini = 0.0\nsamples = 1\nvalue = [0, 1]\nclass = x", fillcolor="#399de5"] ;
384 -> 386 ;
387 [label="gini = 0.0\nsamples = 3\nvalue = [0, 3]\nclass = x", fillcolor="#399de5"] ;
383 -> 387 ;
388 [label="gini = 0.0\nsamples = 3\nvalue = [3, 0]\nclass = E", fillcolor="#e58139"] ;
382 -> 388 ;
389 [label="EstimatedSalary <= -0.269\ngini = 0.272\nsamples = 166\nvalue = [139, 27]\nclass = E", fillcolor="#ea995f"] ;
249 -> 389 ;
390 [label="Balance <= 1.47\ngini = 0.375\nsamples = 68\nvalue = [51, 17]\nclass = E", fillcolor="#eeab7b"] ;
389 -> 390 ;
391 [label="Balance <= 1.351\ngini = 0.419\nsamples = 57\nvalue = [40, 17]\nclass = E", fillcolor="#f0b78d"] ;
390 -> 391 ;
392 [label="Tenure <= 0.874\ngini = 0.397\nsamples = 55\nvalue = [40, 15]\nclass = E", fillcolor="#efb083"] ;
391 -> 392 ;
393 [label="Tenure <= 0.182\ngini = 0.45\nsamples = 41\nvalue = [27, 14]\nclass = E", fillcolor="#f2c2a0"] ;
392 -> 393 ;
394 [label="Balance <= 0.921\ngini = 0.383\nsamples = 31\nvalue = [23, 8]\nclass = E", fillcolor="#eead7e"] ;
393 -> 394 ;
395 [label="gini = 0.0\nsamples = 12\nvalue = [12, 0]\nclass = E", fillcolor="#e58139"] ;
394 -> 395 ;
396 [label="HasCrCard <= -0.45\ngini = 0.488\nsamples = 19\nvalue = [11, 8]\nclass = E", fillcolor="#f8ddc9"] ;
394 -> 396 ;
397 [label="gini = 0.0\nsamples = 4\nvalue = [4, 0]\nclass = E", fillcolor="#e58139"] ;
396 -> 397 ;
398 [label="CreditScore <= 0.771\ngini = 0.498\nsamples = 15\nvalue = [7, 8]\nclass = x", fillcolor="#e6f3fc"] ;
396 -> 398 ;
399 [label="CreditScore <= -1.579\ngini = 0.42\nsamples = 10\nvalue = [3, 7]\nclass = x", fillcolor="#8ec7f0"] ;
398 -> 399 ;
400 [label="gini = 0.0\nsamples = 1\nvalue = [1, 0]\nclass = E", fillcolor="#e58139"] ;
399 -> 400 ;
401 [label="EstimatedSalary <= -0.705\ngini = 0.346\nsamples = 9\nvalue = [2, 7]\nclass = x", fillcolor="#72b9ec"] ;
399 -> 401 ;
402 [label="CreditScore <= -0.513\ngini = 0.48\nsamples = 5\nvalue = [2, 3]\nclass = x", fillcolor="#bddef6"] ;
401 -> 402 ;
403 [label="gini = 0.0\nsamples = 3\nvalue = [0, 3]\nclass = x", fillcolor="#399de5"] ;
402 -> 403 ;
404 [label="gini = 0.0\nsamples = 2\nvalue = [2, 0]\nclass = E", fillcolor="#e58139"] ;
402 -> 404 ;
405 [label="gini = 0.0\nsamples = 4\nvalue = [0, 4]\nclass = x", fillcolor="#399de5"] ;
401 -> 405 ;
406 [label="Balance <= 1.139\ngini = 0.32\nsamples = 5\nvalue = [4, 1]\nclass = E", fillcolor="#eca06a"] ;
398 -> 406 ;
407 [label="gini = 0.0\nsamples = 3\nvalue = [3, 0]\nclass = E", fillcolor="#e58139"] ;
406 -> 407 ;
408 [label="Gender <= -0.096\ngini = 0.5\nsamples = 2\nvalue = [1, 1]\nclass = E", fillcolor="#ffffff"] ;
406 -> 408 ;
409 [label="gini = 0.0\nsamples = 1\nvalue = [1, 0]\nclass = E", fillcolor="#e58139"] ;
408 -> 409 ;
410 [label="gini = 0.0\nsamples = 1\nvalue = [0, 1]\nclass = x", fillcolor="#399de5"] ;
408 -> 410 ;
411 [label="Geography <= 0.903\ngini = 0.48\nsamples = 10\nvalue = [4, 6]\nclass = x", fillcolor="#bddef6"] ;
393 -> 411 ;
412 [label="gini = 0.0\nsamples = 5\nvalue = [0, 5]\nclass = x", fillcolor="#399de5"] ;
411 -> 412 ;
413 [label="Balance <= 0.879\ngini = 0.32\nsamples = 5\nvalue = [4, 1]\nclass = E", fillcolor="#eca06a"] ;
411 -> 413 ;
414 [label="gini = 0.0\nsamples = 1\nvalue = [0, 1]\nclass = x", fillcolor="#399de5"] ;
413 -> 414 ;
415 [label="gini = 0.0\nsamples = 4\nvalue = [4, 0]\nclass = E", fillcolor="#e58139"] ;
413 -> 415 ;
416 [label="CreditScore <= -1.179\ngini = 0.133\nsamples = 14\nvalue = [13, 1]\nclass = E", fillcolor="#e78b48"] ;
392 -> 416 ;
417 [label="gini = 0.0\nsamples = 1\nvalue = [0, 1]\nclass = x", fillcolor="#399de5"] ;
416 -> 417 ;
418 [label="gini = 0.0\nsamples = 13\nvalue = [13, 0]\nclass = E", fillcolor="#e58139"] ;
416 -> 418 ;
419 [label="gini = 0.0\nsamples = 2\nvalue = [0, 2]\nclass = x", fillcolor="#399de5"] ;
391 -> 419 ;
420 [label="gini = 0.0\nsamples = 11\nvalue = [11, 0]\nclass = E", fillcolor="#e58139"] ;
390 -> 420 ;
421 [label="Balance <= 1.559\ngini = 0.183\nsamples = 98\nvalue = [88, 10]\nclass = E", fillcolor="#e88f50"] ;
389 -> 421 ;
422 [label="HasCrCard <= -0.45\ngini = 0.162\nsamples = 90\nvalue = [82, 8]\nclass = E", fillcolor="#e88d4c"] ;
421 -> 422 ;
423 [label="gini = 0.0\nsamples = 22\nvalue = [22, 0]\nclass = E", fillcolor="#e58139"] ;
422 -> 423 ;
424 [label="EstimatedSalary <= 1.267\ngini = 0.208\nsamples = 68\nvalue = [60, 8]\nclass = E", fillcolor="#e89253"] ;
422 -> 424 ;
425 [label="Tenure <= -1.547\ngini = 0.14\nsamples = 53\nvalue = [49, 4]\nclass = E", fillcolor="#e78b49"] ;
424 -> 425 ;
426 [label="EstimatedSalary <= 0.394\ngini = 0.5\nsamples = 2\nvalue = [1, 1]\nclass = E", fillcolor="#ffffff"] ;
425 -> 426 ;
427 [label="gini = 0.0\nsamples = 1\nvalue = [0, 1]\nclass = x", fillcolor="#399de5"] ;
426 -> 427 ;
428 [label="gini = 0.0\nsamples = 1\nvalue = [1, 0]\nclass = E", fillcolor="#e58139"] ;
426 -> 428 ;
429 [label="Tenure <= 1.22\ngini = 0.111\nsamples = 51\nvalue = [48, 3]\nclass = E", fillcolor="#e78945"] ;
425 -> 429 ;
430 [label="Tenure <= -1.201\ngini = 0.05\nsamples = 39\nvalue = [38, 1]\nclass = E", fillcolor="#e6843e"] ;
429 -> 430 ;
431 [label="Age <= -0.18\ngini = 0.32\nsamples = 5\nvalue = [4, 1]\nclass = E", fillcolor="#eca06a"] ;
430 -> 431 ;
432 [label="gini = 0.0\nsamples = 4\nvalue = [4, 0]\nclass = E", fillcolor="#e58139"] ;
431 -> 432 ;
433 [label="gini = 0.0\nsamples = 1\nvalue = [0, 1]\nclass = x", fillcolor="#399de5"] ;
431 -> 433 ;
434 [label="gini = 0.0\nsamples = 34\nvalue = [34, 0]\nclass = E", fillcolor="#e58139"] ;
430 -> 434 ;
435 [label="EstimatedSalary <= 0.134\ngini = 0.278\nsamples = 12\nvalue = [10, 2]\nclass = E", fillcolor="#ea9a61"] ;
429 -> 435 ;
436 [label="gini = 0.0\nsamples = 1\nvalue = [0, 1]\nclass = x", fillcolor="#399de5"] ;
435 -> 436 ;
437 [label="CreditScore <= 0.62\ngini = 0.165\nsamples = 11\nvalue = [10, 1]\nclass = E", fillcolor="#e88e4d"] ;
435 -> 437 ;
438 [label="gini = 0.0\nsamples = 8\nvalue = [8, 0]\nclass = E", fillcolor="#e58139"] ;
437 -> 438 ;
439 [label="Balance <= 0.94\ngini = 0.444\nsamples = 3\nvalue = [2, 1]\nclass = E", fillcolor="#f2c09c"] ;
437 -> 439 ;
440 [label="gini = 0.0\nsamples = 2\nvalue = [2, 0]\nclass = E", fillcolor="#e58139"] ;
439 -> 440 ;
441 [label="gini = 0.0\nsamples = 1\nvalue = [0, 1]\nclass = x", fillcolor="#399de5"] ;
439 -> 441 ;
442 [label="EstimatedSalary <= 1.327\ngini = 0.391\nsamples = 15\nvalue = [11, 4]\nclass = E", fillcolor="#eeaf81"] ;
424 -> 442 ;
443 [label="CreditScore <= -1.745\ngini = 0.375\nsamples = 4\nvalue = [1, 3]\nclass = x", fillcolor="#7bbeee"] ;
442 -> 443 ;
444 [label="gini = 0.0\nsamples = 1\nvalue = [1, 0]\nclass = E", fillcolor="#e58139"] ;
443 -> 444 ;
445 [label="gini = 0.0\nsamples = 3\nvalue = [0, 3]\nclass = x", fillcolor="#399de5"] ;
443 -> 445 ;
446 [label="Balance <= 0.936\ngini = 0.165\nsamples = 11\nvalue = [10, 1]\nclass = E", fillcolor="#e88e4d"] ;
442 -> 446 ;
447 [label="CreditScore <= 0.085\ngini = 0.444\nsamples = 3\nvalue = [2, 1]\nclass = E", fillcolor="#f2c09c"] ;
446 -> 447 ;
448 [label="gini = 0.0\nsamples = 2\nvalue = [2, 0]\nclass = E", fillcolor="#e58139"] ;
447 -> 448 ;
449 [label="gini = 0.0\nsamples = 1\nvalue = [0, 1]\nclass = x", fillcolor="#399de5"] ;
447 -> 449 ;
450 [label="gini = 0.0\nsamples = 8\nvalue = [8, 0]\nclass = E", fillcolor="#e58139"] ;
446 -> 450 ;
451 [label="HasCrCard <= -0.45\ngini = 0.375\nsamples = 8\nvalue = [6, 2]\nclass = E", fillcolor="#eeab7b"] ;
421 -> 451 ;
452 [label="Geography <= 0.903\ngini = 0.444\nsamples = 3\nvalue = [1, 2]\nclass = x", fillcolor="#9ccef2"] ;
451 -> 452 ;
453 [label="gini = 0.0\nsamples = 1\nvalue = [1, 0]\nclass = E", fillcolor="#e58139"] ;
452 -> 453 ;
454 [label="gini = 0.0\nsamples = 2\nvalue = [0, 2]\nclass = x", fillcolor="#399de5"] ;
452 -> 454 ;
455 [label="gini = 0.0\nsamples = 5\nvalue = [5, 0]\nclass = E", fillcolor="#e58139"] ;
451 -> 455 ;
456 [label="Age <= -0.799\ngini = 0.226\nsamples = 438\nvalue = [381, 57]\nclass = E", fillcolor="#e99457"] ;
248 -> 456 ;
457 [label="Tenure <= 1.22\ngini = 0.127\nsamples = 161\nvalue = [150, 11]\nclass = E", fillcolor="#e78a48"] ;
456 -> 457 ;
458 [label="Age <= -1.942\ngini = 0.082\nsamples = 140\nvalue = [134, 6]\nclass = E", fillcolor="#e68742"] ;
457 -> 458 ;
459 [label="CreditScore <= 0.912\ngini = 0.5\nsamples = 2\nvalue = [1, 1]\nclass = E", fillcolor="#ffffff"] ;
458 -> 459 ;
460 [label="gini = 0.0\nsamples = 1\nvalue = [0, 1]\nclass = x", fillcolor="#399de5"] ;
459 -> 460 ;
461 [label="gini = 0.0\nsamples = 1\nvalue = [1, 0]\nclass = E", fillcolor="#e58139"] ;
459 -> 461 ;
462 [label="Balance <= 0.604\ngini = 0.07\nsamples = 138\nvalue = [133, 5]\nclass = E", fillcolor="#e68640"] ;
458 -> 462 ;
463 [label="Balance <= 0.599\ngini = 0.126\nsamples = 59\nvalue = [55, 4]\nclass = E", fillcolor="#e78a47"] ;
462 -> 463 ;
464 [label="Balance <= 0.473\ngini = 0.098\nsamples = 58\nvalue = [55, 3]\nclass = E", fillcolor="#e68844"] ;
463 -> 464 ;
465 [label="gini = 0.0\nsamples = 43\nvalue = [43, 0]\nclass = E", fillcolor="#e58139"] ;
464 -> 465 ;
466 [label="Gender <= -0.096\ngini = 0.32\nsamples = 15\nvalue = [12, 3]\nclass = E", fillcolor="#eca06a"] ;
464 -> 466 ;
467 [label="EstimatedSalary <= -0.676\ngini = 0.5\nsamples = 6\nvalue = [3, 3]\nclass = E", fillcolor="#ffffff"] ;
466 -> 467 ;
468 [label="gini = 0.0\nsamples = 3\nvalue = [3, 0]\nclass = E", fillcolor="#e58139"] ;
467 -> 468 ;
469 [label="gini = 0.0\nsamples = 3\nvalue = [0, 3]\nclass = x", fillcolor="#399de5"] ;
467 -> 469 ;
470 [label="gini = 0.0\nsamples = 9\nvalue = [9, 0]\nclass = E", fillcolor="#e58139"] ;
466 -> 470 ;
471 [label="gini = 0.0\nsamples = 1\nvalue = [0, 1]\nclass = x", fillcolor="#399de5"] ;
463 -> 471 ;
472 [label="EstimatedSalary <= -1.542\ngini = 0.025\nsamples = 79\nvalue = [78, 1]\nclass = E", fillcolor="#e5833c"] ;
462 -> 472 ;
473 [label="EstimatedSalary <= -1.593\ngini = 0.32\nsamples = 5\nvalue = [4, 1]\nclass = E", fillcolor="#eca06a"] ;
472 -> 473 ;
474 [label="gini = 0.0\nsamples = 4\nvalue = [4, 0]\nclass = E", fillcolor="#e58139"] ;
473 -> 474 ;
475 [label="gini = 0.0\nsamples = 1\nvalue = [0, 1]\nclass = x", fillcolor="#399de5"] ;
473 -> 475 ;
476 [label="gini = 0.0\nsamples = 74\nvalue = [74, 0]\nclass = E", fillcolor="#e58139"] ;
472 -> 476 ;
477 [label="CreditScore <= -0.602\ngini = 0.363\nsamples = 21\nvalue = [16, 5]\nclass = E", fillcolor="#eda877"] ;
457 -> 477 ;
478 [label="CreditScore <= -0.976\ngini = 0.49\nsamples = 7\nvalue = [3, 4]\nclass = x", fillcolor="#cee6f8"] ;
477 -> 478 ;
479 [label="gini = 0.0\nsamples = 3\nvalue = [3, 0]\nclass = E", fillcolor="#e58139"] ;
478 -> 479 ;
480 [label="gini = 0.0\nsamples = 4\nvalue = [0, 4]\nclass = x", fillcolor="#399de5"] ;
478 -> 480 ;
481 [label="EstimatedSalary <= -1.076\ngini = 0.133\nsamples = 14\nvalue = [13, 1]\nclass = E", fillcolor="#e78b48"] ;
477 -> 481 ;
482 [label="EstimatedSalary <= -1.428\ngini = 0.5\nsamples = 2\nvalue = [1, 1]\nclass = E", fillcolor="#ffffff"] ;
481 -> 482 ;
483 [label="gini = 0.0\nsamples = 1\nvalue = [1, 0]\nclass = E", fillcolor="#e58139"] ;
482 -> 483 ;
484 [label="gini = 0.0\nsamples = 1\nvalue = [0, 1]\nclass = x", fillcolor="#399de5"] ;
482 -> 484 ;
485 [label="gini = 0.0\nsamples = 12\nvalue = [12, 0]\nclass = E", fillcolor="#e58139"] ;
481 -> 485 ;
486 [label="Geography <= 0.903\ngini = 0.277\nsamples = 277\nvalue = [231, 46]\nclass = E", fillcolor="#ea9a60"] ;
456 -> 486 ;
487 [label="Balance <= 1.047\ngini = 0.367\nsamples = 128\nvalue = [97, 31]\nclass = E", fillcolor="#eda978"] ;
486 -> 487 ;
488 [label="Balance <= 0.34\ngini = 0.416\nsamples = 105\nvalue = [74, 31]\nclass = E", fillcolor="#f0b68c"] ;
487 -> 488 ;
489 [label="EstimatedSalary <= 1.468\ngini = 0.087\nsamples = 22\nvalue = [21, 1]\nclass = E", fillcolor="#e68742"] ;
488 -> 489 ;
490 [label="gini = 0.0\nsamples = 17\nvalue = [17, 0]\nclass = E", fillcolor="#e58139"] ;
489 -> 490 ;
491 [label="CreditScore <= 0.501\ngini = 0.32\nsamples = 5\nvalue = [4, 1]\nclass = E", fillcolor="#eca06a"] ;
489 -> 491 ;
492 [label="gini = 0.0\nsamples = 4\nvalue = [4, 0]\nclass = E", fillcolor="#e58139"] ;
491 -> 492 ;
493 [label="gini = 0.0\nsamples = 1\nvalue = [0, 1]\nclass = x", fillcolor="#399de5"] ;
491 -> 493 ;
494 [label="CreditScore <= -1.459\ngini = 0.462\nsamples = 83\nvalue = [53, 30]\nclass = E", fillcolor="#f4c8a9"] ;
488 -> 494 ;
495 [label="Tenure <= 1.22\ngini = 0.278\nsamples = 6\nvalue = [1, 5]\nclass = x", fillcolor="#61b1ea"] ;
494 -> 495 ;
496 [label="gini = 0.0\nsamples = 4\nvalue = [0, 4]\nclass = x", fillcolor="#399de5"] ;
495 -> 496 ;
497 [label="CreditScore <= -1.834\ngini = 0.5\nsamples = 2\nvalue = [1, 1]\nclass = E", fillcolor="#ffffff"] ;
495 -> 497 ;
498 [label="gini = 0.0\nsamples = 1\nvalue = [1, 0]\nclass = E", fillcolor="#e58139"] ;
497 -> 498 ;
499 [label="gini = 0.0\nsamples = 1\nvalue = [0, 1]\nclass = x", fillcolor="#399de5"] ;
497 -> 499 ;
500 [label="Gender <= -0.096\ngini = 0.439\nsamples = 77\nvalue = [52, 25]\nclass = E", fillcolor="#f2be98"] ;
494 -> 500 ;
501 [label="Tenure <= -1.201\ngini = 0.498\nsamples = 34\nvalue = [18, 16]\nclass = E", fillcolor="#fcf1e9"] ;
500 -> 501 ;
502 [label="gini = 0.0\nsamples = 7\nvalue = [7, 0]\nclass = E", fillcolor="#e58139"] ;
501 -> 502 ;
503 [label="CreditScore <= -0.29\ngini = 0.483\nsamples = 27\nvalue = [11, 16]\nclass = x", fillcolor="#c1e0f7"] ;
501 -> 503 ;
504 [label="Tenure <= -0.855\ngini = 0.32\nsamples = 5\nvalue = [4, 1]\nclass = E", fillcolor="#eca06a"] ;
503 -> 504 ;
505 [label="gini = 0.0\nsamples = 1\nvalue = [0, 1]\nclass = x", fillcolor="#399de5"] ;
504 -> 505 ;
506 [label="gini = 0.0\nsamples = 4\nvalue = [4, 0]\nclass = E", fillcolor="#e58139"] ;
504 -> 506 ;
507 [label="Age <= -0.418\ngini = 0.434\nsamples = 22\nvalue = [7, 15]\nclass = x", fillcolor="#95cbf1"] ;
503 -> 507 ;
508 [label="gini = 0.0\nsamples = 7\nvalue = [0, 7]\nclass = x", fillcolor="#399de5"] ;
507 -> 508 ;
509 [label="CreditScore <= 0.475\ngini = 0.498\nsamples = 15\nvalue = [7, 8]\nclass = x", fillcolor="#e6f3fc"] ;
507 -> 509 ;
510 [label="EstimatedSalary <= 0.375\ngini = 0.278\nsamples = 6\nvalue = [1, 5]\nclass = x", fillcolor="#61b1ea"] ;
509 -> 510 ;
511 [label="gini = 0.0\nsamples = 4\nvalue = [0, 4]\nclass = x", fillcolor="#399de5"] ;
510 -> 511 ;
512 [label="Balance <= 0.791\ngini = 0.5\nsamples = 2\nvalue = [1, 1]\nclass = E", fillcolor="#ffffff"] ;
510 -> 512 ;
513 [label="gini = 0.0\nsamples = 1\nvalue = [1, 0]\nclass = E", fillcolor="#e58139"] ;
512 -> 513 ;
514 [label="gini = 0.0\nsamples = 1\nvalue = [0, 1]\nclass = x", fillcolor="#399de5"] ;
512 -> 514 ;
515 [label="CreditScore <= 1.291\ngini = 0.444\nsamples = 9\nvalue = [6, 3]\nclass = E", fillcolor="#f2c09c"] ;
509 -> 515 ;
516 [label="gini = 0.0\nsamples = 4\nvalue = [4, 0]\nclass = E", fillcolor="#e58139"] ;
515 -> 516 ;
517 [label="Age <= -0.323\ngini = 0.48\nsamples = 5\nvalue = [2, 3]\nclass = x", fillcolor="#bddef6"] ;
515 -> 517 ;
518 [label="gini = 0.0\nsamples = 2\nvalue = [2, 0]\nclass = E", fillcolor="#e58139"] ;
517 -> 518 ;
519 [label="gini = 0.0\nsamples = 3\nvalue = [0, 3]\nclass = x", fillcolor="#399de5"] ;
517 -> 519 ;
520 [label="EstimatedSalary <= 1.554\ngini = 0.331\nsamples = 43\nvalue = [34, 9]\nclass = E", fillcolor="#eca26d"] ;
500 -> 520 ;
521 [label="EstimatedSalary <= -1.215\ngini = 0.283\nsamples = 41\nvalue = [34, 7]\nclass = E", fillcolor="#ea9b62"] ;
520 -> 521 ;
522 [label="Age <= -0.275\ngini = 0.444\nsamples = 3\nvalue = [1, 2]\nclass = x", fillcolor="#9ccef2"] ;
521 -> 522 ;
523 [label="gini = 0.0\nsamples = 2\nvalue = [0, 2]\nclass = x", fillcolor="#399de5"] ;
522 -> 523 ;
524 [label="gini = 0.0\nsamples = 1\nvalue = [1, 0]\nclass = E", fillcolor="#e58139"] ;
522 -> 524 ;
525 [label="Balance <= 1.022\ngini = 0.229\nsamples = 38\nvalue = [33, 5]\nclass = E", fillcolor="#e99457"] ;
521 -> 525 ;
526 [label="Tenure <= 0.182\ngini = 0.193\nsamples = 37\nvalue = [33, 4]\nclass = E", fillcolor="#e89051"] ;
525 -> 526 ;
527 [label="Age <= -0.418\ngini = 0.298\nsamples = 22\nvalue = [18, 4]\nclass = E", fillcolor="#eb9d65"] ;
526 -> 527 ;
528 [label="gini = 0.0\nsamples = 10\nvalue = [10, 0]\nclass = E", fillcolor="#e58139"] ;
527 -> 528 ;
529 [label="EstimatedSalary <= -0.403\ngini = 0.444\nsamples = 12\nvalue = [8, 4]\nclass = E", fillcolor="#f2c09c"] ;
527 -> 529 ;
530 [label="gini = 0.0\nsamples = 1\nvalue = [0, 1]\nclass = x", fillcolor="#399de5"] ;
529 -> 530 ;
531 [label="EstimatedSalary <= 1.326\ngini = 0.397\nsamples = 11\nvalue = [8, 3]\nclass = E", fillcolor="#efb083"] ;
529 -> 531 ;
532 [label="CreditScore <= 0.022\ngini = 0.219\nsamples = 8\nvalue = [7, 1]\nclass = E", fillcolor="#e99355"] ;
531 -> 532 ;
533 [label="gini = 0.0\nsamples = 1\nvalue = [0, 1]\nclass = x", fillcolor="#399de5"] ;
532 -> 533 ;
534 [label="gini = 0.0\nsamples = 7\nvalue = [7, 0]\nclass = E", fillcolor="#e58139"] ;
532 -> 534 ;
535 [label="CreditScore <= 0.23\ngini = 0.444\nsamples = 3\nvalue = [1, 2]\nclass = x", fillcolor="#9ccef2"] ;
531 -> 535 ;
536 [label="gini = 0.0\nsamples = 1\nvalue = [1, 0]\nclass = E", fillcolor="#e58139"] ;
535 -> 536 ;
537 [label="gini = 0.0\nsamples = 2\nvalue = [0, 2]\nclass = x", fillcolor="#399de5"] ;
535 -> 537 ;
538 [label="gini = 0.0\nsamples = 15\nvalue = [15, 0]\nclass = E", fillcolor="#e58139"] ;
526 -> 538 ;
539 [label="gini = 0.0\nsamples = 1\nvalue = [0, 1]\nclass = x", fillcolor="#399de5"] ;
525 -> 539 ;
540 [label="gini = 0.0\nsamples = 2\nvalue = [0, 2]\nclass = x", fillcolor="#399de5"] ;
520 -> 540 ;
541 [label="gini = 0.0\nsamples = 23\nvalue = [23, 0]\nclass = E", fillcolor="#e58139"] ;
487 -> 541 ;
542 [label="Balance <= -0.008\ngini = 0.181\nsamples = 149\nvalue = [134, 15]\nclass = E", fillcolor="#e88f4f"] ;
486 -> 542 ;
543 [label="Tenure <= 0.874\ngini = 0.364\nsamples = 46\nvalue = [35, 11]\nclass = E", fillcolor="#eda977"] ;
542 -> 543 ;
544 [label="CreditScore <= 0.028\ngini = 0.464\nsamples = 30\nvalue = [19, 11]\nclass = E", fillcolor="#f4caac"] ;
543 -> 544 ;
545 [label="EstimatedSalary <= 1.013\ngini = 0.5\nsamples = 20\nvalue = [10, 10]\nclass = E", fillcolor="#ffffff"] ;
544 -> 545 ;
546 [label="CreditScore <= -1.86\ngini = 0.459\nsamples = 14\nvalue = [5, 9]\nclass = x", fillcolor="#a7d3f3"] ;
545 -> 546 ;
547 [label="gini = 0.0\nsamples = 2\nvalue = [2, 0]\nclass = E", fillcolor="#e58139"] ;
546 -> 547 ;
548 [label="EstimatedSalary <= 0.178\ngini = 0.375\nsamples = 12\nvalue = [3, 9]\nclass = x", fillcolor="#7bbeee"] ;
546 -> 548 ;
549 [label="EstimatedSalary <= -0.939\ngini = 0.219\nsamples = 8\nvalue = [1, 7]\nclass = x", fillcolor="#55abe9"] ;
548 -> 549 ;
550 [label="EstimatedSalary <= -1.213\ngini = 0.375\nsamples = 4\nvalue = [1, 3]\nclass = x", fillcolor="#7bbeee"] ;
549 -> 550 ;
551 [label="gini = 0.0\nsamples = 3\nvalue = [0, 3]\nclass = x", fillcolor="#399de5"] ;
550 -> 551 ;
552 [label="gini = 0.0\nsamples = 1\nvalue = [1, 0]\nclass = E", fillcolor="#e58139"] ;
550 -> 552 ;
553 [label="gini = 0.0\nsamples = 4\nvalue = [0, 4]\nclass = x", fillcolor="#399de5"] ;
549 -> 553 ;
554 [label="Gender <= -0.096\ngini = 0.5\nsamples = 4\nvalue = [2, 2]\nclass = E", fillcolor="#ffffff"] ;
548 -> 554 ;
555 [label="gini = 0.0\nsamples = 2\nvalue = [2, 0]\nclass = E", fillcolor="#e58139"] ;
554 -> 555 ;
556 [label="gini = 0.0\nsamples = 2\nvalue = [0, 2]\nclass = x", fillcolor="#399de5"] ;
554 -> 556 ;
557 [label="CreditScore <= -0.066\ngini = 0.278\nsamples = 6\nvalue = [5, 1]\nclass = E", fillcolor="#ea9a61"] ;
545 -> 557 ;
558 [label="gini = 0.0\nsamples = 5\nvalue = [5, 0]\nclass = E", fillcolor="#e58139"] ;
557 -> 558 ;
559 [label="gini = 0.0\nsamples = 1\nvalue = [0, 1]\nclass = x", fillcolor="#399de5"] ;
557 -> 559 ;
560 [label="Balance <= -0.07\ngini = 0.18\nsamples = 10\nvalue = [9, 1]\nclass = E", fillcolor="#e88f4f"] ;
544 -> 560 ;
561 [label="gini = 0.0\nsamples = 9\nvalue = [9, 0]\nclass = E", fillcolor="#e58139"] ;
560 -> 561 ;
562 [label="gini = 0.0\nsamples = 1\nvalue = [0, 1]\nclass = x", fillcolor="#399de5"] ;
560 -> 562 ;
563 [label="gini = 0.0\nsamples = 16\nvalue = [16, 0]\nclass = E", fillcolor="#e58139"] ;
543 -> 563 ;
564 [label="Age <= -0.704\ngini = 0.075\nsamples = 103\nvalue = [99, 4]\nclass = E", fillcolor="#e68641"] ;
542 -> 564 ;
565 [label="EstimatedSalary <= 1.335\ngini = 0.231\nsamples = 15\nvalue = [13, 2]\nclass = E", fillcolor="#e99457"] ;
564 -> 565 ;
566 [label="EstimatedSalary <= -1.132\ngini = 0.133\nsamples = 14\nvalue = [13, 1]\nclass = E", fillcolor="#e78b48"] ;
565 -> 566 ;
567 [label="Tenure <= 0.701\ngini = 0.5\nsamples = 2\nvalue = [1, 1]\nclass = E", fillcolor="#ffffff"] ;
566 -> 567 ;
568 [label="gini = 0.0\nsamples = 1\nvalue = [0, 1]\nclass = x", fillcolor="#399de5"] ;
567 -> 568 ;
569 [label="gini = 0.0\nsamples = 1\nvalue = [1, 0]\nclass = E", fillcolor="#e58139"] ;
567 -> 569 ;
570 [label="gini = 0.0\nsamples = 12\nvalue = [12, 0]\nclass = E", fillcolor="#e58139"] ;
566 -> 570 ;
571 [label="gini = 0.0\nsamples = 1\nvalue = [0, 1]\nclass = x", fillcolor="#399de5"] ;
565 -> 571 ;
572 [label="Balance <= 1.232\ngini = 0.044\nsamples = 88\nvalue = [86, 2]\nclass = E", fillcolor="#e6843e"] ;
564 -> 572 ;
573 [label="gini = 0.0\nsamples = 68\nvalue = [68, 0]\nclass = E", fillcolor="#e58139"] ;
572 -> 573 ;
574 [label="Balance <= 1.24\ngini = 0.18\nsamples = 20\nvalue = [18, 2]\nclass = E", fillcolor="#e88f4f"] ;
572 -> 574 ;
575 [label="gini = 0.0\nsamples = 1\nvalue = [0, 1]\nclass = x", fillcolor="#399de5"] ;
574 -> 575 ;
576 [label="CreditScore <= 0.99\ngini = 0.1\nsamples = 19\nvalue = [18, 1]\nclass = E", fillcolor="#e68844"] ;
574 -> 576 ;
577 [label="gini = 0.0\nsamples = 17\nvalue = [17, 0]\nclass = E", fillcolor="#e58139"] ;
576 -> 577 ;
578 [label="Tenure <= -0.164\ngini = 0.5\nsamples = 2\nvalue = [1, 1]\nclass = E", fillcolor="#ffffff"] ;
576 -> 578 ;
579 [label="gini = 0.0\nsamples = 1\nvalue = [0, 1]\nclass = x", fillcolor="#399de5"] ;
578 -> 579 ;
580 [label="gini = 0.0\nsamples = 1\nvalue = [1, 0]\nclass = E", fillcolor="#e58139"] ;
578 -> 580 ;
581 [label="IsActiveMember <= -0.035\ngini = 0.436\nsamples = 691\nvalue = [469, 222]\nclass = E", fillcolor="#f1bd97"] ;
3 -> 581 ;
582 [label="Geography <= -0.3\ngini = 0.477\nsamples = 372\nvalue = [226, 146]\nclass = E", fillcolor="#f6d2b9"] ;
581 -> 582 ;
583 [label="Balance <= 1.49\ngini = 0.427\nsamples = 175\nvalue = [121, 54]\nclass = E", fillcolor="#f1b991"] ;
582 -> 583 ;
584 [label="Tenure <= 1.566\ngini = 0.413\nsamples = 168\nvalue = [119, 49]\nclass = E", fillcolor="#f0b58b"] ;
583 -> 584 ;
585 [label="Balance <= 0.861\ngini = 0.426\nsamples = 159\nvalue = [110, 49]\nclass = E", fillcolor="#f1b991"] ;
584 -> 585 ;
586 [label="Balance <= 0.655\ngini = 0.388\nsamples = 114\nvalue = [84, 30]\nclass = E", fillcolor="#eeae80"] ;
585 -> 586 ;
587 [label="Tenure <= -0.855\ngini = 0.429\nsamples = 93\nvalue = [64, 29]\nclass = E", fillcolor="#f1ba93"] ;
586 -> 587 ;
588 [label="EstimatedSalary <= -1.547\ngini = 0.245\nsamples = 28\nvalue = [24, 4]\nclass = E", fillcolor="#e9965a"] ;
587 -> 588 ;
589 [label="gini = 0.0\nsamples = 1\nvalue = [0, 1]\nclass = x", fillcolor="#399de5"] ;
588 -> 589 ;
590 [label="Balance <= 0.427\ngini = 0.198\nsamples = 27\nvalue = [24, 3]\nclass = E", fillcolor="#e89152"] ;
588 -> 590 ;
591 [label="EstimatedSalary <= -0.99\ngini = 0.091\nsamples = 21\nvalue = [20, 1]\nclass = E", fillcolor="#e68743"] ;
590 -> 591 ;
592 [label="CreditScore <= 0.34\ngini = 0.375\nsamples = 4\nvalue = [3, 1]\nclass = E", fillcolor="#eeab7b"] ;
591 -> 592 ;
593 [label="gini = 0.0\nsamples = 3\nvalue = [3, 0]\nclass = E", fillcolor="#e58139"] ;
592 -> 593 ;
594 [label="gini = 0.0\nsamples = 1\nvalue = [0, 1]\nclass = x", fillcolor="#399de5"] ;
592 -> 594 ;
595 [label="gini = 0.0\nsamples = 17\nvalue = [17, 0]\nclass = E", fillcolor="#e58139"] ;
591 -> 595 ;
596 [label="Balance <= 0.511\ngini = 0.444\nsamples = 6\nvalue = [4, 2]\nclass = E", fillcolor="#f2c09c"] ;
590 -> 596 ;
597 [label="CreditScore <= 1.905\ngini = 0.444\nsamples = 3\nvalue = [1, 2]\nclass = x", fillcolor="#9ccef2"] ;
596 -> 597 ;
598 [label="gini = 0.0\nsamples = 2\nvalue = [0, 2]\nclass = x", fillcolor="#399de5"] ;
597 -> 598 ;
599 [label="gini = 0.0\nsamples = 1\nvalue = [1, 0]\nclass = E", fillcolor="#e58139"] ;
597 -> 599 ;
600 [label="gini = 0.0\nsamples = 3\nvalue = [3, 0]\nclass = E", fillcolor="#e58139"] ;
596 -> 600 ;
601 [label="Tenure <= 0.182\ngini = 0.473\nsamples = 65\nvalue = [40, 25]\nclass = E", fillcolor="#f5d0b5"] ;
587 -> 601 ;
602 [label="HasCrCard <= -0.45\ngini = 0.48\nsamples = 25\nvalue = [10, 15]\nclass = x", fillcolor="#bddef6"] ;
601 -> 602 ;
603 [label="Balance <= -0.618\ngini = 0.444\nsamples = 9\nvalue = [6, 3]\nclass = E", fillcolor="#f2c09c"] ;
602 -> 603 ;
604 [label="CreditScore <= 0.028\ngini = 0.444\nsamples = 3\nvalue = [1, 2]\nclass = x", fillcolor="#9ccef2"] ;
603 -> 604 ;
605 [label="gini = 0.0\nsamples = 1\nvalue = [1, 0]\nclass = E", fillcolor="#e58139"] ;
604 -> 605 ;
606 [label="gini = 0.0\nsamples = 2\nvalue = [0, 2]\nclass = x", fillcolor="#399de5"] ;
604 -> 606 ;
607 [label="CreditScore <= -0.747\ngini = 0.278\nsamples = 6\nvalue = [5, 1]\nclass = E", fillcolor="#ea9a61"] ;
603 -> 607 ;
608 [label="gini = 0.0\nsamples = 1\nvalue = [0, 1]\nclass = x", fillcolor="#399de5"] ;
607 -> 608 ;
609 [label="gini = 0.0\nsamples = 5\nvalue = [5, 0]\nclass = E", fillcolor="#e58139"] ;
607 -> 609 ;
610 [label="Age <= 0.058\ngini = 0.375\nsamples = 16\nvalue = [4, 12]\nclass = x", fillcolor="#7bbeee"] ;
602 -> 610 ;
611 [label="CreditScore <= -0.404\ngini = 0.444\nsamples = 3\nvalue = [2, 1]\nclass = E", fillcolor="#f2c09c"] ;
610 -> 611 ;
612 [label="gini = 0.0\nsamples = 1\nvalue = [0, 1]\nclass = x", fillcolor="#399de5"] ;
611 -> 612 ;
613 [label="gini = 0.0\nsamples = 2\nvalue = [2, 0]\nclass = E", fillcolor="#e58139"] ;
611 -> 613 ;
614 [label="CreditScore <= -0.446\ngini = 0.26\nsamples = 13\nvalue = [2, 11]\nclass = x", fillcolor="#5dafea"] ;
610 -> 614 ;
615 [label="Balance <= 0.19\ngini = 0.444\nsamples = 3\nvalue = [2, 1]\nclass = E", fillcolor="#f2c09c"] ;
614 -> 615 ;
616 [label="gini = 0.0\nsamples = 2\nvalue = [2, 0]\nclass = E", fillcolor="#e58139"] ;
615 -> 616 ;
617 [label="gini = 0.0\nsamples = 1\nvalue = [0, 1]\nclass = x", fillcolor="#399de5"] ;
615 -> 617 ;
618 [label="gini = 0.0\nsamples = 10\nvalue = [0, 10]\nclass = x", fillcolor="#399de5"] ;
614 -> 618 ;
619 [label="CreditScore <= 1.01\ngini = 0.375\nsamples = 40\nvalue = [30, 10]\nclass = E", fillcolor="#eeab7b"] ;
601 -> 619 ;
620 [label="EstimatedSalary <= 0.244\ngini = 0.307\nsamples = 37\nvalue = [30, 7]\nclass = E", fillcolor="#eb9e67"] ;
619 -> 620 ;
621 [label="Tenure <= 1.22\ngini = 0.091\nsamples = 21\nvalue = [20, 1]\nclass = E", fillcolor="#e68743"] ;
620 -> 621 ;
622 [label="gini = 0.0\nsamples = 14\nvalue = [14, 0]\nclass = E", fillcolor="#e58139"] ;
621 -> 622 ;
623 [label="Gender <= -0.096\ngini = 0.245\nsamples = 7\nvalue = [6, 1]\nclass = E", fillcolor="#e9965a"] ;
621 -> 623 ;
624 [label="CreditScore <= -1.028\ngini = 0.5\nsamples = 2\nvalue = [1, 1]\nclass = E", fillcolor="#ffffff"] ;
623 -> 624 ;
625 [label="gini = 0.0\nsamples = 1\nvalue = [1, 0]\nclass = E", fillcolor="#e58139"] ;
624 -> 625 ;
626 [label="gini = 0.0\nsamples = 1\nvalue = [0, 1]\nclass = x", fillcolor="#399de5"] ;
624 -> 626 ;
627 [label="gini = 0.0\nsamples = 5\nvalue = [5, 0]\nclass = E", fillcolor="#e58139"] ;
623 -> 627 ;
628 [label="CreditScore <= -1.48\ngini = 0.469\nsamples = 16\nvalue = [10, 6]\nclass = E", fillcolor="#f5cdb0"] ;
620 -> 628 ;
629 [label="gini = 0.0\nsamples = 2\nvalue = [0, 2]\nclass = x", fillcolor="#399de5"] ;
628 -> 629 ;
630 [label="EstimatedSalary <= 0.58\ngini = 0.408\nsamples = 14\nvalue = [10, 4]\nclass = E", fillcolor="#efb388"] ;
628 -> 630 ;
631 [label="Balance <= -0.82\ngini = 0.444\nsamples = 3\nvalue = [1, 2]\nclass = x", fillcolor="#9ccef2"] ;
630 -> 631 ;
632 [label="gini = 0.0\nsamples = 1\nvalue = [1, 0]\nclass = E", fillcolor="#e58139"] ;
631 -> 632 ;
633 [label="gini = 0.0\nsamples = 2\nvalue = [0, 2]\nclass = x", fillcolor="#399de5"] ;
631 -> 633 ;
634 [label="Balance <= -0.777\ngini = 0.298\nsamples = 11\nvalue = [9, 2]\nclass = E", fillcolor="#eb9d65"] ;
630 -> 634 ;
635 [label="HasCrCard <= -0.45\ngini = 0.48\nsamples = 5\nvalue = [3, 2]\nclass = E", fillcolor="#f6d5bd"] ;
634 -> 635 ;
636 [label="EstimatedSalary <= 0.86\ngini = 0.444\nsamples = 3\nvalue = [1, 2]\nclass = x", fillcolor="#9ccef2"] ;
635 -> 636 ;
637 [label="gini = 0.0\nsamples = 1\nvalue = [1, 0]\nclass = E", fillcolor="#e58139"] ;
636 -> 637 ;
638 [label="gini = 0.0\nsamples = 2\nvalue = [0, 2]\nclass = x", fillcolor="#399de5"] ;
636 -> 638 ;
639 [label="gini = 0.0\nsamples = 2\nvalue = [2, 0]\nclass = E", fillcolor="#e58139"] ;
635 -> 639 ;
640 [label="gini = 0.0\nsamples = 6\nvalue = [6, 0]\nclass = E", fillcolor="#e58139"] ;
634 -> 640 ;
641 [label="gini = 0.0\nsamples = 3\nvalue = [0, 3]\nclass = x", fillcolor="#399de5"] ;
619 -> 641 ;
642 [label="EstimatedSalary <= -0.859\ngini = 0.091\nsamples = 21\nvalue = [20, 1]\nclass = E", fillcolor="#e68743"] ;
586 -> 642 ;
643 [label="EstimatedSalary <= -1.262\ngini = 0.375\nsamples = 4\nvalue = [3, 1]\nclass = E", fillcolor="#eeab7b"] ;
642 -> 643 ;
644 [label="gini = 0.0\nsamples = 3\nvalue = [3, 0]\nclass = E", fillcolor="#e58139"] ;
643 -> 644 ;
645 [label="gini = 0.0\nsamples = 1\nvalue = [0, 1]\nclass = x", fillcolor="#399de5"] ;
643 -> 645 ;
646 [label="gini = 0.0\nsamples = 17\nvalue = [17, 0]\nclass = E", fillcolor="#e58139"] ;
642 -> 646 ;
647 [label="CreditScore <= -0.17\ngini = 0.488\nsamples = 45\nvalue = [26, 19]\nclass = E", fillcolor="#f8ddca"] ;
585 -> 647 ;
648 [label="EstimatedSalary <= 1.342\ngini = 0.401\nsamples = 18\nvalue = [5, 13]\nclass = x", fillcolor="#85c3ef"] ;
647 -> 648 ;
649 [label="Age <= 0.058\ngini = 0.231\nsamples = 15\nvalue = [2, 13]\nclass = x", fillcolor="#57ace9"] ;
648 -> 649 ;
650 [label="gini = 0.0\nsamples = 1\nvalue = [1, 0]\nclass = E", fillcolor="#e58139"] ;
649 -> 650 ;
651 [label="CreditScore <= -1.345\ngini = 0.133\nsamples = 14\nvalue = [1, 13]\nclass = x", fillcolor="#48a5e7"] ;
649 -> 651 ;
652 [label="Tenure <= 0.182\ngini = 0.444\nsamples = 3\nvalue = [1, 2]\nclass = x", fillcolor="#9ccef2"] ;
651 -> 652 ;
653 [label="gini = 0.0\nsamples = 1\nvalue = [1, 0]\nclass = E", fillcolor="#e58139"] ;
652 -> 653 ;
654 [label="gini = 0.0\nsamples = 2\nvalue = [0, 2]\nclass = x", fillcolor="#399de5"] ;
652 -> 654 ;
655 [label="gini = 0.0\nsamples = 11\nvalue = [0, 11]\nclass = x", fillcolor="#399de5"] ;
651 -> 655 ;
656 [label="gini = 0.0\nsamples = 3\nvalue = [3, 0]\nclass = E", fillcolor="#e58139"] ;
648 -> 656 ;
657 [label="Balance <= 0.916\ngini = 0.346\nsamples = 27\nvalue = [21, 6]\nclass = E", fillcolor="#eca572"] ;
647 -> 657 ;
658 [label="CreditScore <= 1.769\ngini = 0.32\nsamples = 5\nvalue = [1, 4]\nclass = x", fillcolor="#6ab6ec"] ;
657 -> 658 ;
659 [label="gini = 0.0\nsamples = 4\nvalue = [0, 4]\nclass = x", fillcolor="#399de5"] ;
658 -> 659 ;
660 [label="gini = 0.0\nsamples = 1\nvalue = [1, 0]\nclass = E", fillcolor="#e58139"] ;
658 -> 660 ;
661 [label="Tenure <= -1.201\ngini = 0.165\nsamples = 22\nvalue = [20, 2]\nclass = E", fillcolor="#e88e4d"] ;
657 -> 661 ;
662 [label="gini = 0.0\nsamples = 1\nvalue = [0, 1]\nclass = x", fillcolor="#399de5"] ;
661 -> 662 ;
663 [label="Tenure <= -0.855\ngini = 0.091\nsamples = 21\nvalue = [20, 1]\nclass = E", fillcolor="#e68743"] ;
661 -> 663 ;
664 [label="CreditScore <= 0.262\ngini = 0.444\nsamples = 3\nvalue = [2, 1]\nclass = E", fillcolor="#f2c09c"] ;
663 -> 664 ;
665 [label="gini = 0.0\nsamples = 1\nvalue = [0, 1]\nclass = x", fillcolor="#399de5"] ;
664 -> 665 ;
666 [label="gini = 0.0\nsamples = 2\nvalue = [2, 0]\nclass = E", fillcolor="#e58139"] ;
664 -> 666 ;
667 [label="gini = 0.0\nsamples = 18\nvalue = [18, 0]\nclass = E", fillcolor="#e58139"] ;
663 -> 667 ;
668 [label="gini = 0.0\nsamples = 9\nvalue = [9, 0]\nclass = E", fillcolor="#e58139"] ;
584 -> 668 ;
669 [label="CreditScore <= -1.158\ngini = 0.408\nsamples = 7\nvalue = [2, 5]\nclass = x", fillcolor="#88c4ef"] ;
583 -> 669 ;
670 [label="gini = 0.0\nsamples = 1\nvalue = [1, 0]\nclass = E", fillcolor="#e58139"] ;
669 -> 670 ;
671 [label="HasCrCard <= -0.45\ngini = 0.278\nsamples = 6\nvalue = [1, 5]\nclass = x", fillcolor="#61b1ea"] ;
669 -> 671 ;
672 [label="gini = 0.0\nsamples = 1\nvalue = [1, 0]\nclass = E", fillcolor="#e58139"] ;
671 -> 672 ;
673 [label="gini = 0.0\nsamples = 5\nvalue = [0, 5]\nclass = x", fillcolor="#399de5"] ;
671 -> 673 ;
674 [label="Tenure <= 0.874\ngini = 0.498\nsamples = 197\nvalue = [105, 92]\nclass = E", fillcolor="#fcefe6"] ;
582 -> 674 ;
675 [label="EstimatedSalary <= -0.334\ngini = 0.48\nsamples = 145\nvalue = [87, 58]\nclass = E", fillcolor="#f6d5bd"] ;
674 -> 675 ;
676 [label="Balance <= 0.331\ngini = 0.497\nsamples = 54\nvalue = [25, 29]\nclass = x", fillcolor="#e4f1fb"] ;
675 -> 676 ;
677 [label="Gender <= -0.096\ngini = 0.432\nsamples = 19\nvalue = [13, 6]\nclass = E", fillcolor="#f1bb94"] ;
676 -> 677 ;
678 [label="Tenure <= -0.509\ngini = 0.32\nsamples = 5\nvalue = [1, 4]\nclass = x", fillcolor="#6ab6ec"] ;
677 -> 678 ;
679 [label="gini = 0.0\nsamples = 1\nvalue = [1, 0]\nclass = E", fillcolor="#e58139"] ;
678 -> 679 ;
680 [label="gini = 0.0\nsamples = 4\nvalue = [0, 4]\nclass = x", fillcolor="#399de5"] ;
678 -> 680 ;
681 [label="EstimatedSalary <= -0.462\ngini = 0.245\nsamples = 14\nvalue = [12, 2]\nclass = E", fillcolor="#e9965a"] ;
677 -> 681 ;
682 [label="Tenure <= -1.028\ngini = 0.153\nsamples = 12\nvalue = [11, 1]\nclass = E", fillcolor="#e78c4b"] ;
681 -> 682 ;
683 [label="Balance <= -0.734\ngini = 0.444\nsamples = 3\nvalue = [2, 1]\nclass = E", fillcolor="#f2c09c"] ;
682 -> 683 ;
684 [label="gini = 0.0\nsamples = 1\nvalue = [0, 1]\nclass = x", fillcolor="#399de5"] ;
683 -> 684 ;
685 [label="gini = 0.0\nsamples = 2\nvalue = [2, 0]\nclass = E", fillcolor="#e58139"] ;
683 -> 685 ;
686 [label="gini = 0.0\nsamples = 9\nvalue = [9, 0]\nclass = E", fillcolor="#e58139"] ;
682 -> 686 ;
687 [label="EstimatedSalary <= -0.422\ngini = 0.5\nsamples = 2\nvalue = [1, 1]\nclass = E", fillcolor="#ffffff"] ;
681 -> 687 ;
688 [label="gini = 0.0\nsamples = 1\nvalue = [0, 1]\nclass = x", fillcolor="#399de5"] ;
687 -> 688 ;
689 [label="gini = 0.0\nsamples = 1\nvalue = [1, 0]\nclass = E", fillcolor="#e58139"] ;
687 -> 689 ;
690 [label="Geography <= 0.903\ngini = 0.451\nsamples = 35\nvalue = [12, 23]\nclass = x", fillcolor="#a0d0f3"] ;
676 -> 690 ;
691 [label="EstimatedSalary <= -1.302\ngini = 0.308\nsamples = 21\nvalue = [4, 17]\nclass = x", fillcolor="#68b4eb"] ;
690 -> 691 ;
692 [label="Balance <= 0.919\ngini = 0.48\nsamples = 10\nvalue = [4, 6]\nclass = x", fillcolor="#bddef6"] ;
691 -> 692 ;
693 [label="Age <= 0.058\ngini = 0.278\nsamples = 6\nvalue = [1, 5]\nclass = x", fillcolor="#61b1ea"] ;
692 -> 693 ;
694 [label="Balance <= 0.662\ngini = 0.5\nsamples = 2\nvalue = [1, 1]\nclass = E", fillcolor="#ffffff"] ;
693 -> 694 ;
695 [label="gini = 0.0\nsamples = 1\nvalue = [1, 0]\nclass = E", fillcolor="#e58139"] ;
694 -> 695 ;
696 [label="gini = 0.0\nsamples = 1\nvalue = [0, 1]\nclass = x", fillcolor="#399de5"] ;
694 -> 696 ;
697 [label="gini = 0.0\nsamples = 4\nvalue = [0, 4]\nclass = x", fillcolor="#399de5"] ;
693 -> 697 ;
698 [label="Age <= 0.439\ngini = 0.375\nsamples = 4\nvalue = [3, 1]\nclass = E", fillcolor="#eeab7b"] ;
692 -> 698 ;
699 [label="gini = 0.0\nsamples = 3\nvalue = [3, 0]\nclass = E", fillcolor="#e58139"] ;
698 -> 699 ;
700 [label="gini = 0.0\nsamples = 1\nvalue = [0, 1]\nclass = x", fillcolor="#399de5"] ;
698 -> 700 ;
701 [label="gini = 0.0\nsamples = 11\nvalue = [0, 11]\nclass = x", fillcolor="#399de5"] ;
691 -> 701 ;
702 [label="Balance <= 1.318\ngini = 0.49\nsamples = 14\nvalue = [8, 6]\nclass = E", fillcolor="#f8e0ce"] ;
690 -> 702 ;
703 [label="CreditScore <= -0.336\ngini = 0.32\nsamples = 10\nvalue = [8, 2]\nclass = E", fillcolor="#eca06a"] ;
702 -> 703 ;
704 [label="Age <= 0.201\ngini = 0.444\nsamples = 3\nvalue = [1, 2]\nclass = x", fillcolor="#9ccef2"] ;
703 -> 704 ;
705 [label="gini = 0.0\nsamples = 1\nvalue = [1, 0]\nclass = E", fillcolor="#e58139"] ;
704 -> 705 ;
706 [label="gini = 0.0\nsamples = 2\nvalue = [0, 2]\nclass = x", fillcolor="#399de5"] ;
704 -> 706 ;
707 [label="gini = 0.0\nsamples = 7\nvalue = [7, 0]\nclass = E", fillcolor="#e58139"] ;
703 -> 707 ;
708 [label="gini = 0.0\nsamples = 4\nvalue = [0, 4]\nclass = x", fillcolor="#399de5"] ;
702 -> 708 ;
709 [label="Balance <= 0.663\ngini = 0.434\nsamples = 91\nvalue = [62, 29]\nclass = E", fillcolor="#f1bc96"] ;
675 -> 709 ;
710 [label="Balance <= 0.467\ngini = 0.357\nsamples = 43\nvalue = [33, 10]\nclass = E", fillcolor="#eda775"] ;
709 -> 710 ;
711 [label="Balance <= 0.204\ngini = 0.43\nsamples = 32\nvalue = [22, 10]\nclass = E", fillcolor="#f1ba93"] ;
710 -> 711 ;
712 [label="Balance <= -0.3\ngini = 0.308\nsamples = 21\nvalue = [17, 4]\nclass = E", fillcolor="#eb9f68"] ;
711 -> 712 ;
713 [label="EstimatedSalary <= 0.872\ngini = 0.48\nsamples = 10\nvalue = [6, 4]\nclass = E", fillcolor="#f6d5bd"] ;
712 -> 713 ;
714 [label="Balance <= -0.782\ngini = 0.278\nsamples = 6\nvalue = [5, 1]\nclass = E", fillcolor="#ea9a61"] ;
713 -> 714 ;
715 [label="gini = 0.0\nsamples = 5\nvalue = [5, 0]\nclass = E", fillcolor="#e58139"] ;
714 -> 715 ;
716 [label="gini = 0.0\nsamples = 1\nvalue = [0, 1]\nclass = x", fillcolor="#399de5"] ;
714 -> 716 ;
717 [label="EstimatedSalary <= 1.619\ngini = 0.375\nsamples = 4\nvalue = [1, 3]\nclass = x", fillcolor="#7bbeee"] ;
713 -> 717 ;
718 [label="gini = 0.0\nsamples = 3\nvalue = [0, 3]\nclass = x", fillcolor="#399de5"] ;
717 -> 718 ;
719 [label="gini = 0.0\nsamples = 1\nvalue = [1, 0]\nclass = E", fillcolor="#e58139"] ;
717 -> 719 ;
720 [label="gini = 0.0\nsamples = 11\nvalue = [11, 0]\nclass = E", fillcolor="#e58139"] ;
712 -> 720 ;
721 [label="Balance <= 0.322\ngini = 0.496\nsamples = 11\nvalue = [5, 6]\nclass = x", fillcolor="#deeffb"] ;
711 -> 721 ;
722 [label="Tenure <= -1.201\ngini = 0.278\nsamples = 6\nvalue = [1, 5]\nclass = x", fillcolor="#61b1ea"] ;
721 -> 722 ;
723 [label="gini = 0.0\nsamples = 1\nvalue = [1, 0]\nclass = E", fillcolor="#e58139"] ;
722 -> 723 ;
724 [label="gini = 0.0\nsamples = 5\nvalue = [0, 5]\nclass = x", fillcolor="#399de5"] ;
722 -> 724 ;
725 [label="Age <= 0.153\ngini = 0.32\nsamples = 5\nvalue = [4, 1]\nclass = E", fillcolor="#eca06a"] ;
721 -> 725 ;
726 [label="gini = 0.0\nsamples = 1\nvalue = [0, 1]\nclass = x", fillcolor="#399de5"] ;
725 -> 726 ;
727 [label="gini = 0.0\nsamples = 4\nvalue = [4, 0]\nclass = E", fillcolor="#e58139"] ;
725 -> 727 ;
728 [label="gini = 0.0\nsamples = 11\nvalue = [11, 0]\nclass = E", fillcolor="#e58139"] ;
710 -> 728 ;
729 [label="Gender <= -0.096\ngini = 0.478\nsamples = 48\nvalue = [29, 19]\nclass = E", fillcolor="#f6d4bb"] ;
709 -> 729 ;
730 [label="CreditScore <= -1.101\ngini = 0.472\nsamples = 21\nvalue = [8, 13]\nclass = x", fillcolor="#b3d9f5"] ;
729 -> 730 ;
731 [label="gini = 0.0\nsamples = 2\nvalue = [2, 0]\nclass = E", fillcolor="#e58139"] ;
730 -> 731 ;
732 [label="Age <= 0.249\ngini = 0.432\nsamples = 19\nvalue = [6, 13]\nclass = x", fillcolor="#94caf1"] ;
730 -> 732 ;
733 [label="CreditScore <= 0.22\ngini = 0.5\nsamples = 12\nvalue = [6, 6]\nclass = E", fillcolor="#ffffff"] ;
732 -> 733 ;
734 [label="Geography <= 0.903\ngini = 0.32\nsamples = 5\nvalue = [1, 4]\nclass = x", fillcolor="#6ab6ec"] ;
733 -> 734 ;
735 [label="gini = 0.0\nsamples = 4\nvalue = [0, 4]\nclass = x", fillcolor="#399de5"] ;
734 -> 735 ;
736 [label="gini = 0.0\nsamples = 1\nvalue = [1, 0]\nclass = E", fillcolor="#e58139"] ;
734 -> 736 ;
737 [label="Balance <= 1.157\ngini = 0.408\nsamples = 7\nvalue = [5, 2]\nclass = E", fillcolor="#efb388"] ;
733 -> 737 ;
738 [label="gini = 0.0\nsamples = 5\nvalue = [5, 0]\nclass = E", fillcolor="#e58139"] ;
737 -> 738 ;
739 [label="gini = 0.0\nsamples = 2\nvalue = [0, 2]\nclass = x", fillcolor="#399de5"] ;
737 -> 739 ;
740 [label="gini = 0.0\nsamples = 7\nvalue = [0, 7]\nclass = x", fillcolor="#399de5"] ;
732 -> 740 ;
741 [label="EstimatedSalary <= 1.045\ngini = 0.346\nsamples = 27\nvalue = [21, 6]\nclass = E", fillcolor="#eca572"] ;
729 -> 741 ;
742 [label="EstimatedSalary <= -0.153\ngini = 0.124\nsamples = 15\nvalue = [14, 1]\nclass = E", fillcolor="#e78a47"] ;
741 -> 742 ;
743 [label="CreditScore <= -1.194\ngini = 0.444\nsamples = 3\nvalue = [2, 1]\nclass = E", fillcolor="#f2c09c"] ;
742 -> 743 ;
744 [label="gini = 0.0\nsamples = 1\nvalue = [0, 1]\nclass = x", fillcolor="#399de5"] ;
743 -> 744 ;
745 [label="gini = 0.0\nsamples = 2\nvalue = [2, 0]\nclass = E", fillcolor="#e58139"] ;
743 -> 745 ;
746 [label="gini = 0.0\nsamples = 12\nvalue = [12, 0]\nclass = E", fillcolor="#e58139"] ;
742 -> 746 ;
747 [label="Balance <= 0.776\ngini = 0.486\nsamples = 12\nvalue = [7, 5]\nclass = E", fillcolor="#f8dbc6"] ;
741 -> 747 ;
748 [label="gini = 0.0\nsamples = 2\nvalue = [0, 2]\nclass = x", fillcolor="#399de5"] ;
747 -> 748 ;
749 [label="Age <= 0.153\ngini = 0.42\nsamples = 10\nvalue = [7, 3]\nclass = E", fillcolor="#f0b78e"] ;
747 -> 749 ;
750 [label="gini = 0.0\nsamples = 5\nvalue = [5, 0]\nclass = E", fillcolor="#e58139"] ;
749 -> 750 ;
751 [label="EstimatedSalary <= 1.26\ngini = 0.48\nsamples = 5\nvalue = [2, 3]\nclass = x", fillcolor="#bddef6"] ;
749 -> 751 ;
752 [label="Balance <= 1.551\ngini = 0.444\nsamples = 3\nvalue = [2, 1]\nclass = E", fillcolor="#f2c09c"] ;
751 -> 752 ;
753 [label="gini = 0.0\nsamples = 2\nvalue = [2, 0]\nclass = E", fillcolor="#e58139"] ;
752 -> 753 ;
754 [label="gini = 0.0\nsamples = 1\nvalue = [0, 1]\nclass = x", fillcolor="#399de5"] ;
752 -> 754 ;
755 [label="gini = 0.0\nsamples = 2\nvalue = [0, 2]\nclass = x", fillcolor="#399de5"] ;
751 -> 755 ;
756 [label="Age <= 0.439\ngini = 0.453\nsamples = 52\nvalue = [18, 34]\nclass = x", fillcolor="#a2d1f3"] ;
674 -> 756 ;
757 [label="CreditScore <= 0.813\ngini = 0.43\nsamples = 48\nvalue = [15, 33]\nclass = x", fillcolor="#93caf1"] ;
756 -> 757 ;
758 [label="CreditScore <= 0.475\ngini = 0.464\nsamples = 41\nvalue = [15, 26]\nclass = x", fillcolor="#abd6f4"] ;
757 -> 758 ;
759 [label="Geography <= 0.903\ngini = 0.408\nsamples = 35\nvalue = [10, 25]\nclass = x", fillcolor="#88c4ef"] ;
758 -> 759 ;
760 [label="Balance <= 1.141\ngini = 0.18\nsamples = 20\nvalue = [2, 18]\nclass = x", fillcolor="#4fa8e8"] ;
759 -> 760 ;
761 [label="gini = 0.0\nsamples = 16\nvalue = [0, 16]\nclass = x", fillcolor="#399de5"] ;
760 -> 761 ;
762 [label="Age <= 0.058\ngini = 0.5\nsamples = 4\nvalue = [2, 2]\nclass = E", fillcolor="#ffffff"] ;
760 -> 762 ;
763 [label="gini = 0.0\nsamples = 2\nvalue = [0, 2]\nclass = x", fillcolor="#399de5"] ;
762 -> 763 ;
764 [label="gini = 0.0\nsamples = 2\nvalue = [2, 0]\nclass = E", fillcolor="#e58139"] ;
762 -> 764 ;
765 [label="Balance <= 0.486\ngini = 0.498\nsamples = 15\nvalue = [8, 7]\nclass = E", fillcolor="#fcefe6"] ;
759 -> 765 ;
766 [label="CreditScore <= -1.028\ngini = 0.444\nsamples = 9\nvalue = [3, 6]\nclass = x", fillcolor="#9ccef2"] ;
765 -> 766 ;
767 [label="gini = 0.0\nsamples = 1\nvalue = [1, 0]\nclass = E", fillcolor="#e58139"] ;
766 -> 767 ;
768 [label="EstimatedSalary <= -1.631\ngini = 0.375\nsamples = 8\nvalue = [2, 6]\nclass = x", fillcolor="#7bbeee"] ;
766 -> 768 ;
769 [label="gini = 0.0\nsamples = 1\nvalue = [1, 0]\nclass = E", fillcolor="#e58139"] ;
768 -> 769 ;
770 [label="HasCrCard <= -0.45\ngini = 0.245\nsamples = 7\nvalue = [1, 6]\nclass = x", fillcolor="#5aade9"] ;
768 -> 770 ;
771 [label="Balance <= -0.484\ngini = 0.444\nsamples = 3\nvalue = [1, 2]\nclass = x", fillcolor="#9ccef2"] ;
770 -> 771 ;
772 [label="gini = 0.0\nsamples = 1\nvalue = [1, 0]\nclass = E", fillcolor="#e58139"] ;
771 -> 772 ;
773 [label="gini = 0.0\nsamples = 2\nvalue = [0, 2]\nclass = x", fillcolor="#399de5"] ;
771 -> 773 ;
774 [label="gini = 0.0\nsamples = 4\nvalue = [0, 4]\nclass = x", fillcolor="#399de5"] ;
770 -> 774 ;
775 [label="EstimatedSalary <= 1.536\ngini = 0.278\nsamples = 6\nvalue = [5, 1]\nclass = E", fillcolor="#ea9a61"] ;
765 -> 775 ;
776 [label="gini = 0.0\nsamples = 5\nvalue = [5, 0]\nclass = E", fillcolor="#e58139"] ;
775 -> 776 ;
777 [label="gini = 0.0\nsamples = 1\nvalue = [0, 1]\nclass = x", fillcolor="#399de5"] ;
775 -> 777 ;
778 [label="EstimatedSalary <= -0.945\ngini = 0.278\nsamples = 6\nvalue = [5, 1]\nclass = E", fillcolor="#ea9a61"] ;
758 -> 778 ;
779 [label="gini = 0.0\nsamples = 1\nvalue = [0, 1]\nclass = x", fillcolor="#399de5"] ;
778 -> 779 ;
780 [label="gini = 0.0\nsamples = 5\nvalue = [5, 0]\nclass = E", fillcolor="#e58139"] ;
778 -> 780 ;
781 [label="gini = 0.0\nsamples = 7\nvalue = [0, 7]\nclass = x", fillcolor="#399de5"] ;
757 -> 781 ;
782 [label="CreditScore <= -0.04\ngini = 0.375\nsamples = 4\nvalue = [3, 1]\nclass = E", fillcolor="#eeab7b"] ;
756 -> 782 ;
783 [label="gini = 0.0\nsamples = 2\nvalue = [2, 0]\nclass = E", fillcolor="#e58139"] ;
782 -> 783 ;
784 [label="CreditScore <= 0.818\ngini = 0.5\nsamples = 2\nvalue = [1, 1]\nclass = E", fillcolor="#ffffff"] ;
782 -> 784 ;
785 [label="gini = 0.0\nsamples = 1\nvalue = [0, 1]\nclass = x", fillcolor="#399de5"] ;
784 -> 785 ;
786 [label="gini = 0.0\nsamples = 1\nvalue = [1, 0]\nclass = E", fillcolor="#e58139"] ;
784 -> 786 ;
787 [label="Geography <= 0.903\ngini = 0.363\nsamples = 319\nvalue = [243, 76]\nclass = E", fillcolor="#eda877"] ;
581 -> 787 ;
788 [label="Geography <= -0.3\ngini = 0.411\nsamples = 228\nvalue = [162, 66]\nclass = E", fillcolor="#f0b48a"] ;
787 -> 788 ;
789 [label="Balance <= 0.014\ngini = 0.354\nsamples = 161\nvalue = [124, 37]\nclass = E", fillcolor="#eda774"] ;
788 -> 789 ;
790 [label="Balance <= -0.06\ngini = 0.449\nsamples = 50\nvalue = [33, 17]\nclass = E", fillcolor="#f2c29f"] ;
789 -> 790 ;
791 [label="Tenure <= -0.509\ngini = 0.418\nsamples = 47\nvalue = [33, 14]\nclass = E", fillcolor="#f0b68d"] ;
790 -> 791 ;
792 [label="Tenure <= -1.201\ngini = 0.5\nsamples = 14\nvalue = [7, 7]\nclass = E", fillcolor="#ffffff"] ;
791 -> 792 ;
793 [label="Age <= 0.344\ngini = 0.245\nsamples = 7\nvalue = [6, 1]\nclass = E", fillcolor="#e9965a"] ;
792 -> 793 ;
794 [label="gini = 0.0\nsamples = 4\nvalue = [4, 0]\nclass = E", fillcolor="#e58139"] ;
793 -> 794 ;
795 [label="CreditScore <= 0.376\ngini = 0.444\nsamples = 3\nvalue = [2, 1]\nclass = E", fillcolor="#f2c09c"] ;
793 -> 795 ;
796 [label="gini = 0.0\nsamples = 1\nvalue = [0, 1]\nclass = x", fillcolor="#399de5"] ;
795 -> 796 ;
797 [label="gini = 0.0\nsamples = 2\nvalue = [2, 0]\nclass = E", fillcolor="#e58139"] ;
795 -> 797 ;
798 [label="CreditScore <= -1.376\ngini = 0.245\nsamples = 7\nvalue = [1, 6]\nclass = x", fillcolor="#5aade9"] ;
792 -> 798 ;
799 [label="gini = 0.0\nsamples = 1\nvalue = [1, 0]\nclass = E", fillcolor="#e58139"] ;
798 -> 799 ;
800 [label="gini = 0.0\nsamples = 6\nvalue = [0, 6]\nclass = x", fillcolor="#399de5"] ;
798 -> 800 ;
801 [label="Tenure <= 0.182\ngini = 0.334\nsamples = 33\nvalue = [26, 7]\nclass = E", fillcolor="#eca36e"] ;
791 -> 801 ;
802 [label="gini = 0.0\nsamples = 13\nvalue = [13, 0]\nclass = E", fillcolor="#e58139"] ;
801 -> 802 ;
803 [label="EstimatedSalary <= 0.599\ngini = 0.455\nsamples = 20\nvalue = [13, 7]\nclass = E", fillcolor="#f3c5a4"] ;
801 -> 803 ;
804 [label="Gender <= -0.096\ngini = 0.375\nsamples = 16\nvalue = [12, 4]\nclass = E", fillcolor="#eeab7b"] ;
803 -> 804 ;
805 [label="gini = 0.0\nsamples = 6\nvalue = [6, 0]\nclass = E", fillcolor="#e58139"] ;
804 -> 805 ;
806 [label="CreditScore <= -0.05\ngini = 0.48\nsamples = 10\nvalue = [6, 4]\nclass = E", fillcolor="#f6d5bd"] ;
804 -> 806 ;
807 [label="EstimatedSalary <= -0.704\ngini = 0.375\nsamples = 8\nvalue = [6, 2]\nclass = E", fillcolor="#eeab7b"] ;
806 -> 807 ;
808 [label="Age <= 0.201\ngini = 0.444\nsamples = 3\nvalue = [1, 2]\nclass = x", fillcolor="#9ccef2"] ;
807 -> 808 ;
809 [label="gini = 0.0\nsamples = 2\nvalue = [0, 2]\nclass = x", fillcolor="#399de5"] ;
808 -> 809 ;
810 [label="gini = 0.0\nsamples = 1\nvalue = [1, 0]\nclass = E", fillcolor="#e58139"] ;
808 -> 810 ;
811 [label="gini = 0.0\nsamples = 5\nvalue = [5, 0]\nclass = E", fillcolor="#e58139"] ;
807 -> 811 ;
812 [label="gini = 0.0\nsamples = 2\nvalue = [0, 2]\nclass = x", fillcolor="#399de5"] ;
806 -> 812 ;
813 [label="CreditScore <= -0.388\ngini = 0.375\nsamples = 4\nvalue = [1, 3]\nclass = x", fillcolor="#7bbeee"] ;
803 -> 813 ;
814 [label="CreditScore <= -0.706\ngini = 0.5\nsamples = 2\nvalue = [1, 1]\nclass = E", fillcolor="#ffffff"] ;
813 -> 814 ;
815 [label="gini = 0.0\nsamples = 1\nvalue = [0, 1]\nclass = x", fillcolor="#399de5"] ;
814 -> 815 ;
816 [label="gini = 0.0\nsamples = 1\nvalue = [1, 0]\nclass = E", fillcolor="#e58139"] ;
814 -> 816 ;
817 [label="gini = 0.0\nsamples = 2\nvalue = [0, 2]\nclass = x", fillcolor="#399de5"] ;
813 -> 817 ;
818 [label="gini = 0.0\nsamples = 3\nvalue = [0, 3]\nclass = x", fillcolor="#399de5"] ;
790 -> 818 ;
819 [label="CreditScore <= -1.194\ngini = 0.295\nsamples = 111\nvalue = [91, 20]\nclass = E", fillcolor="#eb9d65"] ;
789 -> 819 ;
820 [label="EstimatedSalary <= -0.418\ngini = 0.49\nsamples = 7\nvalue = [3, 4]\nclass = x", fillcolor="#cee6f8"] ;
819 -> 820 ;
821 [label="HasCrCard <= -0.45\ngini = 0.375\nsamples = 4\nvalue = [3, 1]\nclass = E", fillcolor="#eeab7b"] ;
820 -> 821 ;
822 [label="gini = 0.0\nsamples = 1\nvalue = [0, 1]\nclass = x", fillcolor="#399de5"] ;
821 -> 822 ;
823 [label="gini = 0.0\nsamples = 3\nvalue = [3, 0]\nclass = E", fillcolor="#e58139"] ;
821 -> 823 ;
824 [label="gini = 0.0\nsamples = 3\nvalue = [0, 3]\nclass = x", fillcolor="#399de5"] ;
820 -> 824 ;
825 [label="Balance <= 0.874\ngini = 0.26\nsamples = 104\nvalue = [88, 16]\nclass = E", fillcolor="#ea985d"] ;
819 -> 825 ;
826 [label="EstimatedSalary <= 0.868\ngini = 0.165\nsamples = 55\nvalue = [50, 5]\nclass = E", fillcolor="#e88e4d"] ;
825 -> 826 ;
827 [label="Tenure <= -1.547\ngini = 0.051\nsamples = 38\nvalue = [37, 1]\nclass = E", fillcolor="#e6843e"] ;
826 -> 827 ;
828 [label="Age <= 0.153\ngini = 0.5\nsamples = 2\nvalue = [1, 1]\nclass = E", fillcolor="#ffffff"] ;
827 -> 828 ;
829 [label="gini = 0.0\nsamples = 1\nvalue = [0, 1]\nclass = x", fillcolor="#399de5"] ;
828 -> 829 ;
830 [label="gini = 0.0\nsamples = 1\nvalue = [1, 0]\nclass = E", fillcolor="#e58139"] ;
828 -> 830 ;
831 [label="gini = 0.0\nsamples = 36\nvalue = [36, 0]\nclass = E", fillcolor="#e58139"] ;
827 -> 831 ;
832 [label="Balance <= 0.474\ngini = 0.36\nsamples = 17\nvalue = [13, 4]\nclass = E", fillcolor="#eda876"] ;
826 -> 832 ;
833 [label="Balance <= 0.218\ngini = 0.49\nsamples = 7\nvalue = [3, 4]\nclass = x", fillcolor="#cee6f8"] ;
832 -> 833 ;
834 [label="gini = 0.0\nsamples = 2\nvalue = [2, 0]\nclass = E", fillcolor="#e58139"] ;
833 -> 834 ;
835 [label="EstimatedSalary <= 1.351\ngini = 0.32\nsamples = 5\nvalue = [1, 4]\nclass = x", fillcolor="#6ab6ec"] ;
833 -> 835 ;
836 [label="gini = 0.0\nsamples = 4\nvalue = [0, 4]\nclass = x", fillcolor="#399de5"] ;
835 -> 836 ;
837 [label="gini = 0.0\nsamples = 1\nvalue = [1, 0]\nclass = E", fillcolor="#e58139"] ;
835 -> 837 ;
838 [label="gini = 0.0\nsamples = 10\nvalue = [10, 0]\nclass = E", fillcolor="#e58139"] ;
832 -> 838 ;
839 [label="EstimatedSalary <= 1.051\ngini = 0.348\nsamples = 49\nvalue = [38, 11]\nclass = E", fillcolor="#eda572"] ;
825 -> 839 ;
840 [label="CreditScore <= 0.334\ngini = 0.405\nsamples = 39\nvalue = [28, 11]\nclass = E", fillcolor="#efb287"] ;
839 -> 840 ;
841 [label="Tenure <= -0.855\ngini = 0.498\nsamples = 17\nvalue = [9, 8]\nclass = E", fillcolor="#fcf1e9"] ;
840 -> 841 ;
842 [label="gini = 0.0\nsamples = 4\nvalue = [4, 0]\nclass = E", fillcolor="#e58139"] ;
841 -> 842 ;
843 [label="CreditScore <= -0.399\ngini = 0.473\nsamples = 13\nvalue = [5, 8]\nclass = x", fillcolor="#b5daf5"] ;
841 -> 843 ;
844 [label="gini = 0.0\nsamples = 3\nvalue = [3, 0]\nclass = E", fillcolor="#e58139"] ;
843 -> 844 ;
845 [label="EstimatedSalary <= -1.159\ngini = 0.32\nsamples = 10\nvalue = [2, 8]\nclass = x", fillcolor="#6ab6ec"] ;
843 -> 845 ;
846 [label="gini = 0.0\nsamples = 2\nvalue = [2, 0]\nclass = E", fillcolor="#e58139"] ;
845 -> 846 ;
847 [label="gini = 0.0\nsamples = 8\nvalue = [0, 8]\nclass = x", fillcolor="#399de5"] ;
845 -> 847 ;
848 [label="EstimatedSalary <= 0.849\ngini = 0.236\nsamples = 22\nvalue = [19, 3]\nclass = E", fillcolor="#e99558"] ;
840 -> 848 ;
849 [label="Balance <= 0.877\ngini = 0.172\nsamples = 21\nvalue = [19, 2]\nclass = E", fillcolor="#e88e4e"] ;
848 -> 849 ;
850 [label="gini = 0.0\nsamples = 1\nvalue = [0, 1]\nclass = x", fillcolor="#399de5"] ;
849 -> 850 ;
851 [label="Balance <= 0.915\ngini = 0.095\nsamples = 20\nvalue = [19, 1]\nclass = E", fillcolor="#e68843"] ;
849 -> 851 ;
852 [label="Balance <= 0.905\ngini = 0.375\nsamples = 4\nvalue = [3, 1]\nclass = E", fillcolor="#eeab7b"] ;
851 -> 852 ;
853 [label="gini = 0.0\nsamples = 3\nvalue = [3, 0]\nclass = E", fillcolor="#e58139"] ;
852 -> 853 ;
854 [label="gini = 0.0\nsamples = 1\nvalue = [0, 1]\nclass = x", fillcolor="#399de5"] ;
852 -> 854 ;
855 [label="gini = 0.0\nsamples = 16\nvalue = [16, 0]\nclass = E", fillcolor="#e58139"] ;
851 -> 855 ;
856 [label="gini = 0.0\nsamples = 1\nvalue = [0, 1]\nclass = x", fillcolor="#399de5"] ;
848 -> 856 ;
857 [label="gini = 0.0\nsamples = 10\nvalue = [10, 0]\nclass = E", fillcolor="#e58139"] ;
839 -> 857 ;
858 [label="Tenure <= -1.201\ngini = 0.491\nsamples = 67\nvalue = [38, 29]\nclass = E", fillcolor="#f9e1d0"] ;
788 -> 858 ;
859 [label="EstimatedSalary <= -0.61\ngini = 0.375\nsamples = 12\nvalue = [3, 9]\nclass = x", fillcolor="#7bbeee"] ;
858 -> 859 ;
860 [label="gini = 0.0\nsamples = 6\nvalue = [0, 6]\nclass = x", fillcolor="#399de5"] ;
859 -> 860 ;
861 [label="Tenure <= -1.547\ngini = 0.5\nsamples = 6\nvalue = [3, 3]\nclass = E", fillcolor="#ffffff"] ;
859 -> 861 ;
862 [label="Age <= 0.153\ngini = 0.375\nsamples = 4\nvalue = [3, 1]\nclass = E", fillcolor="#eeab7b"] ;
861 -> 862 ;
863 [label="gini = 0.0\nsamples = 1\nvalue = [0, 1]\nclass = x", fillcolor="#399de5"] ;
862 -> 863 ;
864 [label="gini = 0.0\nsamples = 3\nvalue = [3, 0]\nclass = E", fillcolor="#e58139"] ;
862 -> 864 ;
865 [label="gini = 0.0\nsamples = 2\nvalue = [0, 2]\nclass = x", fillcolor="#399de5"] ;
861 -> 865 ;
866 [label="Tenure <= 0.182\ngini = 0.463\nsamples = 55\nvalue = [35, 20]\nclass = E", fillcolor="#f4c9aa"] ;
858 -> 866 ;
867 [label="Age <= 0.439\ngini = 0.35\nsamples = 31\nvalue = [24, 7]\nclass = E", fillcolor="#eda673"] ;
866 -> 867 ;
868 [label="EstimatedSalary <= 1.482\ngini = 0.252\nsamples = 27\nvalue = [23, 4]\nclass = E", fillcolor="#ea975b"] ;
867 -> 868 ;
869 [label="EstimatedSalary <= -0.463\ngini = 0.204\nsamples = 26\nvalue = [23, 3]\nclass = E", fillcolor="#e89153"] ;
868 -> 869 ;
870 [label="EstimatedSalary <= -0.829\ngini = 0.375\nsamples = 12\nvalue = [9, 3]\nclass = E", fillcolor="#eeab7b"] ;
869 -> 870 ;
871 [label="CreditScore <= -0.669\ngini = 0.18\nsamples = 10\nvalue = [9, 1]\nclass = E", fillcolor="#e88f4f"] ;
870 -> 871 ;
872 [label="Balance <= 0.604\ngini = 0.5\nsamples = 2\nvalue = [1, 1]\nclass = E", fillcolor="#ffffff"] ;
871 -> 872 ;
873 [label="gini = 0.0\nsamples = 1\nvalue = [0, 1]\nclass = x", fillcolor="#399de5"] ;
872 -> 873 ;
874 [label="gini = 0.0\nsamples = 1\nvalue = [1, 0]\nclass = E", fillcolor="#e58139"] ;
872 -> 874 ;
875 [label="gini = 0.0\nsamples = 8\nvalue = [8, 0]\nclass = E", fillcolor="#e58139"] ;
871 -> 875 ;
876 [label="gini = 0.0\nsamples = 2\nvalue = [0, 2]\nclass = x", fillcolor="#399de5"] ;
870 -> 876 ;
877 [label="gini = 0.0\nsamples = 14\nvalue = [14, 0]\nclass = E", fillcolor="#e58139"] ;
869 -> 877 ;
878 [label="gini = 0.0\nsamples = 1\nvalue = [0, 1]\nclass = x", fillcolor="#399de5"] ;
868 -> 878 ;
879 [label="CreditScore <= 1.146\ngini = 0.375\nsamples = 4\nvalue = [1, 3]\nclass = x", fillcolor="#7bbeee"] ;
867 -> 879 ;
880 [label="gini = 0.0\nsamples = 3\nvalue = [0, 3]\nclass = x", fillcolor="#399de5"] ;
879 -> 880 ;
881 [label="gini = 0.0\nsamples = 1\nvalue = [1, 0]\nclass = E", fillcolor="#e58139"] ;
879 -> 881 ;
882 [label="Age <= 0.249\ngini = 0.497\nsamples = 24\nvalue = [11, 13]\nclass = x", fillcolor="#e1f0fb"] ;
866 -> 882 ;
883 [label="EstimatedSalary <= -1.159\ngini = 0.444\nsamples = 12\nvalue = [8, 4]\nclass = E", fillcolor="#f2c09c"] ;
882 -> 883 ;
884 [label="gini = 0.0\nsamples = 4\nvalue = [4, 0]\nclass = E", fillcolor="#e58139"] ;
883 -> 884 ;
